<?xml version="1.0"?>
<opencv_storage>
<opencv_ml_svm>
  <format>3</format>
  <svmType>C_SVC</svmType>
  <kernel>
    <type>RBF</type>
    <gamma>1.</gamma></kernel>
  <C>1.</C>
  <term_criteria><epsilon>1.1920928955078125e-07</epsilon>
    <iterations>1000</iterations></term_criteria>
  <var_count>4</var_count>
  <class_count>2</class_count>
  <class_labels type_id="opencv-matrix">
    <rows>2</rows>
    <cols>1</cols>
    <dt>i</dt>
    <data>
      0 1</data></class_labels>
  <sv_total>2000</sv_total>
  <support_vectors>
    <_>
      8. 126. 126. 101.</_>
    <_>
      64. 131. 142. 17.</_>
    <_>
      56. 125. 138. 32.</_>
    <_>
      46. 124. 132. 56.</_>
    <_>
      53. 121. 132. 66.</_>
    <_>
      43. 125. 131. 55.</_>
    <_>
      79. 132. 148. 18.</_>
    <_>
      70. 131. 151. 20.</_>
    <_>
      43. 129. 136. 20.</_>
    <_>
      79. 132. 148. 18.</_>
    <_>
      48. 125. 137. 30.</_>
    <_>
      78. 138. 138. 8.</_>
    <_>
      48. 129. 132. 15.</_>
    <_>
      52. 130. 134. 15.</_>
    <_>
      44. 130. 130. 13.</_>
    <_>
      69. 135. 138. 11.</_>
    <_>
      47. 131. 132. 11.</_>
    <_>
      48. 131. 131. 8.</_>
    <_>
      47. 131. 132. 11.</_>
    <_>
      84. 147. 137. 1.</_>
    <_>
      83. 147. 137. 1.</_>
    <_>
      69. 143. 135. 2.</_>
    <_>
      82. 147. 140. 4.</_>
    <_>
      89. 143. 139. 5.</_>
    <_>
      81. 144. 140. 5.</_>
    <_>
      89. 144. 138. 4.</_>
    <_>
      88. 143. 141. 7.</_>
    <_>
      67. 141. 141. 8.</_>
    <_>
      69. 143. 135. 2.</_>
    <_>
      69. 143. 135. 2.</_>
    <_>
      69. 143. 135. 2.</_>
    <_>
      80. 140. 140. 8.</_>
    <_>
      65. 138. 141. 10.</_>
    <_>
      69. 135. 133. 5.</_>
    <_>
      70. 136. 134. 6.</_>
    <_>
      84. 143. 141. 6.</_>
    <_>
      85. 142. 141. 7.</_>
    <_>
      80. 132. 132. 8.</_>
    <_>
      74. 132. 133. 9.</_>
    <_>
      80. 132. 132. 8.</_>
    <_>
      82. 150. 140. 2.</_>
    <_>
      86. 146. 139. 3.</_>
    <_>
      78. 151. 140. 1.</_>
    <_>
      75. 152. 142. 3.</_>
    <_>
      75. 149. 139. 1.</_>
    <_>
      77. 148. 139. 2.</_>
    <_>
      83. 149. 139. 2.</_>
    <_>
      87. 143. 138. 4.</_>
    <_>
      78. 143. 139. 5.</_>
    <_>
      79. 146. 139. 4.</_>
    <_>
      83. 142. 142. 8.</_>
    <_>
      86. 143. 139. 5.</_>
    <_>
      86. 141. 140. 7.</_>
    <_>
      12. 126. 126. 97.</_>
    <_>
      81. 149. 140. 2.</_>
    <_>
      69. 133. 142. 15.</_>
    <_>
      63. 135. 145. 15.</_>
    <_>
      83. 149. 140. 2.</_>
    <_>
      83. 146. 143. 6.</_>
    <_>
      63. 136. 141. 12.</_>
    <_>
      68. 137. 143. 12.</_>
    <_>
      82. 147. 142. 5.</_>
    <_>
      76. 149. 142. 3.</_>
    <_>
      75. 152. 142. 3.</_>
    <_>
      74. 150. 141. 2.</_>
    <_>
      84. 143. 140. 6.</_>
    <_>
      82. 147. 139. 3.</_>
    <_>
      76. 153. 142. 2.</_>
    <_>
      76. 151. 143. 4.</_>
    <_>
      74. 150. 140. 2.</_>
    <_>
      77. 143. 139. 5.</_>
    <_>
      55. 139. 142. 10.</_>
    <_>
      75. 138. 142. 10.</_>
    <_>
      63. 133. 139. 13.</_>
    <_>
      66. 139. 140. 8.</_>
    <_>
      67. 136. 140. 11.</_>
    <_>
      65. 134. 139. 13.</_>
    <_>
      7. 128. 126. 105.</_>
    <_>
      61. 131. 135. 14.</_>
    <_>
      78. 133. 135. 10.</_>
    <_>
      66. 132. 136. 12.</_>
    <_>
      70. 141. 141. 8.</_>
    <_>
      83. 152. 140. 1.</_>
    <_>
      80. 154. 141. 1.</_>
    <_>
      52. 134. 130. 0.</_>
    <_>
      56. 129. 132. 17.</_>
    <_>
      45. 130. 130. 6.</_>
    <_>
      63. 135. 145. 15.</_>
    <_>
      62. 137. 141. 11.</_>
    <_>
      56. 129. 135. 18.</_>
    <_>
      46. 133. 130. 3.</_>
    <_>
      71. 139. 136. 5.</_>
    <_>
      53. 130. 133. 15.</_>
    <_>
      48. 130. 133. 15.</_>
    <_>
      58. 129. 134. 16.</_>
    <_>
      12. 126. 126. 97.</_>
    <_>
      58. 129. 133. 16.</_>
    <_>
      46. 131. 131. 9.</_>
    <_>
      47. 132. 132. 8.</_>
    <_>
      66. 130. 136. 15.</_>
    <_>
      6. 128. 125. 105.</_>
    <_>
      50. 131. 130. 3.</_>
    <_>
      56. 132. 140. 14.</_>
    <_>
      46. 131. 134. 13.</_>
    <_>
      52. 129. 133. 16.</_>
    <_>
      50. 131. 131. 7.</_>
    <_>
      52. 125. 133. 33.</_>
    <_>
      83. 149. 140. 3.</_>
    <_>
      72. 152. 140. 1.</_>
    <_>
      74. 153. 141. 1.</_>
    <_>
      74. 149. 141. 3.</_>
    <_>
      71. 137. 137. 8.</_>
    <_>
      65. 138. 141. 9.</_>
    <_>
      62. 138. 141. 10.</_>
    <_>
      66. 140. 139. 7.</_>
    <_>
      54. 137. 140. 10.</_>
    <_>
      57. 135. 141. 12.</_>
    <_>
      66. 133. 142. 15.</_>
    <_>
      57. 130. 140. 18.</_>
    <_>
      68. 137. 136. 6.</_>
    <_>
      63. 134. 140. 13.</_>
    <_>
      70. 137. 137. 8.</_>
    <_>
      61. 133. 141. 15.</_>
    <_>
      69. 140. 144. 10.</_>
    <_>
      48. 130. 129. 5.</_>
    <_>
      78. 135. 135. 7.</_>
    <_>
      84. 138. 139. 9.</_>
    <_>
      76. 139. 137. 5.</_>
    <_>
      83. 138. 139. 8.</_>
    <_>
      82. 139. 138. 7.</_>
    <_>
      77. 138. 138. 7.</_>
    <_>
      52. 134. 130. 0.</_>
    <_>
      41. 134. 132. 6.</_>
    <_>
      72. 141. 136. 4.</_>
    <_>
      73. 139. 133. 1.</_>
    <_>
      71. 140. 135. 3.</_>
    <_>
      86. 148. 140. 3.</_>
    <_>
      64. 140. 135. 2.</_>
    <_>
      74. 134. 132. 5.</_>
    <_>
      79. 135. 135. 8.</_>
    <_>
      74. 152. 145. 4.</_>
    <_>
      78. 136. 140. 11.</_>
    <_>
      75. 151. 145. 5.</_>
    <_>
      76. 135. 139. 11.</_>
    <_>
      48. 131. 131. 6.</_>
    <_>
      47. 131. 138. 16.</_>
    <_>
      58. 125. 136. 32.</_>
    <_>
      51. 131. 131. 9.</_>
    <_>
      70. 138. 141. 10.</_>
    <_>
      77. 142. 138. 5.</_>
    <_>
      65. 139. 141. 9.</_>
    <_>
      68. 138. 146. 13.</_>
    <_>
      65. 134. 142. 14.</_>
    <_>
      68. 138. 144. 11.</_>
    <_>
      63. 134. 140. 13.</_>
    <_>
      69. 143. 140. 6.</_>
    <_>
      77. 137. 137. 8.</_>
    <_>
      68. 135. 137. 10.</_>
    <_>
      75. 139. 140. 9.</_>
    <_>
      83. 138. 140. 9.</_>
    <_>
      88. 141. 141. 8.</_>
    <_>
      68. 137. 137. 8.</_>
    <_>
      72. 135. 139. 12.</_>
    <_>
      74. 134. 138. 11.</_>
    <_>
      76. 136. 139. 10.</_>
    <_>
      69. 135. 137. 10.</_>
    <_>
      88. 143. 139. 5.</_>
    <_>
      74. 139. 140. 8.</_>
    <_>
      65. 134. 138. 12.</_>
    <_>
      63. 134. 140. 13.</_>
    <_>
      61. 132. 138. 14.</_>
    <_>
      64. 131. 142. 17.</_>
    <_>
      75. 135. 140. 12.</_>
    <_>
      78. 135. 140. 12.</_>
    <_>
      68. 136. 137. 9.</_>
    <_>
      55. 131. 138. 16.</_>
    <_>
      66. 141. 138. 6.</_>
    <_>
      48. 132. 136. 12.</_>
    <_>
      77. 144. 141. 6.</_>
    <_>
      76. 138. 139. 8.</_>
    <_>
      67. 141. 138. 6.</_>
    <_>
      61. 133. 140. 13.</_>
    <_>
      69. 137. 136. 8.</_>
    <_>
      84. 138. 141. 10.</_>
    <_>
      75. 136. 139. 10.</_>
    <_>
      80. 136. 139. 11.</_>
    <_>
      69. 139. 142. 10.</_>
    <_>
      65. 135. 137. 10.</_>
    <_>
      78. 137. 139. 9.</_>
    <_>
      65. 134. 141. 14.</_>
    <_>
      82. 149. 138. 1.</_>
    <_>
      77. 133. 134. 9.</_>
    <_>
      83. 149. 140. 3.</_>
    <_>
      76. 137. 138. 9.</_>
    <_>
      71. 139. 138. 7.</_>
    <_>
      66. 137. 143. 12.</_>
    <_>
      69. 134. 137. 10.</_>
    <_>
      74. 136. 139. 10.</_>
    <_>
      69. 140. 139. 7.</_>
    <_>
      65. 137. 138. 8.</_>
    <_>
      77. 142. 140. 7.</_>
    <_>
      80. 150. 138. 1.</_>
    <_>
      71. 139. 137. 6.</_>
    <_>
      81. 140. 143. 9.</_>
    <_>
      54. 136. 141. 11.</_>
    <_>
      75. 135. 140. 12.</_>
    <_>
      77. 133. 133. 8.</_>
    <_>
      74. 150. 138. 1.</_>
    <_>
      61. 138. 132. 1.</_>
    <_>
      49. 133. 135. 11.</_>
    <_>
      69. 145. 135. 0.</_>
    <_>
      50. 134. 135. 10.</_>
    <_>
      58. 125. 136. 30.</_>
    <_>
      83. 150. 138. 1.</_>
    <_>
      78. 152. 140. 1.</_>
    <_>
      73. 139. 133. 1.</_>
    <_>
      75. 147. 139. 3.</_>
    <_>
      82. 140. 139. 8.</_>
    <_>
      67. 142. 135. 2.</_>
    <_>
      70. 141. 134. 2.</_>
    <_>
      92. 143. 140. 6.</_>
    <_>
      84. 144. 140. 5.</_>
    <_>
      82. 145. 139. 4.</_>
    <_>
      85. 143. 139. 5.</_>
    <_>
      71. 143. 136. 2.</_>
    <_>
      89. 143. 140. 6.</_>
    <_>
      72. 143. 135. 1.</_>
    <_>
      82. 140. 140. 8.</_>
    <_>
      84. 139. 142. 10.</_>
    <_>
      86. 142. 142. 8.</_>
    <_>
      71. 138. 136. 5.</_>
    <_>
      76. 138. 136. 7.</_>
    <_>
      78. 138. 136. 7.</_>
    <_>
      76. 132. 134. 11.</_>
    <_>
      63. 142. 133. 0.</_>
    <_>
      71. 137. 135. 6.</_>
    <_>
      64. 132. 135. 11.</_>
    <_>
      76. 138. 144. 12.</_>
    <_>
      84. 145. 141. 5.</_>
    <_>
      85. 140. 140. 8.</_>
    <_>
      79. 141. 140. 6.</_>
    <_>
      79. 149. 137. 0.</_>
    <_>
      83. 147. 143. 5.</_>
    <_>
      60. 133. 139. 13.</_>
    <_>
      57. 132. 139. 14.</_>
    <_>
      55. 133. 140. 15.</_>
    <_>
      42. 129. 136. 20.</_>
    <_>
      42. 128. 139. 20.</_>
    <_>
      65. 132. 138. 14.</_>
    <_>
      64. 131. 138. 15.</_>
    <_>
      38. 128. 134. 21.</_>
    <_>
      39. 128. 135. 21.</_>
    <_>
      57. 131. 136. 15.</_>
    <_>
      48. 130. 138. 16.</_>
    <_>
      54. 130. 137. 16.</_>
    <_>
      59. 131. 137. 16.</_>
    <_>
      66. 132. 137. 14.</_>
    <_>
      67. 132. 135. 13.</_>
    <_>
      65. 132. 137. 13.</_>
    <_>
      66. 137. 137. 8.</_>
    <_>
      66. 131. 137. 15.</_>
    <_>
      62. 129. 137. 19.</_>
    <_>
      74. 135. 139. 11.</_>
    <_>
      64. 132. 138. 14.</_>
    <_>
      59. 129. 138. 19.</_>
    <_>
      66. 133. 139. 13.</_>
    <_>
      62. 132. 138. 14.</_>
    <_>
      68. 136. 137. 9.</_>
    <_>
      58. 132. 140. 15.</_>
    <_>
      49. 131. 138. 16.</_>
    <_>
      66. 134. 138. 12.</_>
    <_>
      60. 133. 138. 13.</_>
    <_>
      47. 130. 138. 18.</_>
    <_>
      66. 135. 137. 11.</_>
    <_>
      67. 135. 138. 11.</_>
    <_>
      53. 133. 138. 13.</_>
    <_>
      53. 130. 136. 18.</_>
    <_>
      69. 134. 136. 10.</_>
    <_>
      65. 135. 136. 8.</_>
    <_>
      62. 135. 138. 10.</_>
    <_>
      61. 131. 137. 16.</_>
    <_>
      55. 130. 137. 16.</_>
    <_>
      52. 133. 136. 12.</_>
    <_>
      56. 132. 138. 14.</_>
    <_>
      57. 130. 137. 16.</_>
    <_>
      60. 131. 139. 16.</_>
    <_>
      52. 132. 136. 12.</_>
    <_>
      46. 131. 134. 13.</_>
    <_>
      57. 132. 140. 14.</_>
    <_>
      62. 133. 139. 14.</_>
    <_>
      66. 135. 138. 11.</_>
    <_>
      55. 135. 139. 12.</_>
    <_>
      67. 135. 138. 11.</_>
    <_>
      64. 132. 137. 13.</_>
    <_>
      43. 136. 134. 5.</_>
    <_>
      59. 134. 138. 13.</_>
    <_>
      61. 134. 139. 13.</_>
    <_>
      67. 135. 138. 11.</_>
    <_>
      69. 136. 139. 10.</_>
    <_>
      52. 130. 133. 14.</_>
    <_>
      68. 136. 138. 10.</_>
    <_>
      75. 153. 142. 2.</_>
    <_>
      77. 153. 144. 3.</_>
    <_>
      80. 144. 141. 6.</_>
    <_>
      60. 139. 142. 10.</_>
    <_>
      71. 141. 139. 7.</_>
    <_>
      70. 142. 142. 8.</_>
    <_>
      65. 139. 143. 10.</_>
    <_>
      79. 138. 142. 10.</_>
    <_>
      75. 138. 142. 10.</_>
    <_>
      65. 138. 141. 9.</_>
    <_>
      62. 133. 141. 14.</_>
    <_>
      77. 141. 140. 6.</_>
    <_>
      76. 137. 138. 9.</_>
    <_>
      83. 140. 139. 7.</_>
    <_>
      67. 137. 136. 7.</_>
    <_>
      62. 137. 142. 11.</_>
    <_>
      47. 135. 137. 10.</_>
    <_>
      77. 138. 137. 6.</_>
    <_>
      61. 140. 142. 10.</_>
    <_>
      66. 138. 143. 11.</_>
    <_>
      65. 138. 141. 11.</_>
    <_>
      55. 139. 142. 10.</_>
    <_>
      65. 137. 140. 10.</_>
    <_>
      56. 130. 140. 18.</_>
    <_>
      70. 137. 137. 8.</_>
    <_>
      70. 135. 143. 13.</_>
    <_>
      64. 139. 141. 10.</_>
    <_>
      72. 137. 143. 12.</_>
    <_>
      79. 142. 139. 6.</_>
    <_>
      73. 137. 140. 11.</_>
    <_>
      63. 136. 142. 12.</_>
    <_>
      79. 138. 142. 10.</_>
    <_>
      77. 140. 144. 10.</_>
    <_>
      77. 142. 142. 8.</_>
    <_>
      55. 137. 141. 11.</_>
    <_>
      65. 138. 146. 13.</_>
    <_>
      60. 137. 142. 11.</_>
    <_>
      79. 141. 139. 6.</_>
    <_>
      77. 137. 137. 8.</_>
    <_>
      69. 134. 132. 5.</_>
    <_>
      76. 135. 133. 5.</_>
    <_>
      79. 134. 135. 8.</_>
    <_>
      61. 138. 132. 1.</_>
    <_>
      68. 138. 140. 9.</_>
    <_>
      68. 133. 135. 10.</_>
    <_>
      50. 135. 135. 9.</_>
    <_>
      80. 136. 139. 11.</_>
    <_>
      44. 135. 131. 2.</_>
    <_>
      84. 138. 139. 8.</_>
    <_>
      85. 140. 140. 8.</_>
    <_>
      89. 143. 140. 6.</_>
    <_>
      66. 133. 142. 15.</_>
    <_>
      71. 137. 137. 8.</_>
    <_>
      82. 149. 141. 3.</_>
    <_>
      82. 148. 141. 3.</_>
    <_>
      82. 148. 137. 0.</_>
    <_>
      79. 144. 137. 3.</_>
    <_>
      84. 144. 138. 4.</_>
    <_>
      82. 145. 139. 4.</_>
    <_>
      73. 150. 141. 2.</_>
    <_>
      75. 149. 140. 2.</_>
    <_>
      78. 152. 143. 3.</_>
    <_>
      72. 150. 140. 2.</_>
    <_>
      79. 150. 139. 1.</_>
    <_>
      83. 148. 137. 1.</_>
    <_>
      87. 146. 139. 3.</_>
    <_>
      58. 124. 138. 32.</_>
    <_>
      67. 133. 144. 16.</_>
    <_>
      69. 138. 145. 13.</_>
    <_>
      65. 138. 146. 13.</_>
    <_>
      83. 139. 138. 6.</_>
    <_>
      83. 141. 140. 7.</_>
    <_>
      71. 138. 138. 8.</_>
    <_>
      83. 141. 140. 7.</_>
    <_>
      82. 147. 140. 4.</_>
    <_>
      85. 140. 140. 7.</_>
    <_>
      77. 142. 139. 6.</_>
    <_>
      84. 141. 140. 8.</_>
    <_>
      83. 140. 140. 8.</_>
    <_>
      78. 141. 139. 6.</_>
    <_>
      77. 142. 139. 6.</_>
    <_>
      79. 140. 140. 7.</_>
    <_>
      78. 140. 139. 8.</_>
    <_>
      81. 138. 140. 9.</_>
    <_>
      70. 143. 135. 1.</_>
    <_>
      80. 138. 139. 9.</_>
    <_>
      75. 139. 139. 7.</_>
    <_>
      71. 138. 138. 7.</_>
    <_>
      68. 136. 134. 6.</_>
    <_>
      80. 154. 141. 0.</_>
    <_>
      70. 140. 137. 5.</_>
    <_>
      75. 138. 137. 7.</_>
    <_>
      75. 140. 138. 6.</_>
    <_>
      79. 141. 139. 6.</_>
    <_>
      71. 139. 137. 6.</_>
    <_>
      79. 140. 139. 8.</_>
    <_>
      71. 138. 139. 8.</_>
    <_>
      72. 139. 135. 4.</_>
    <_>
      76. 140. 139. 7.</_>
    <_>
      72. 140. 135. 3.</_>
    <_>
      88. 142. 138. 5.</_>
    <_>
      69. 141. 136. 4.</_>
    <_>
      70. 138. 137. 7.</_>
    <_>
      69. 137. 137. 8.</_>
    <_>
      70. 139. 137. 6.</_>
    <_>
      70. 135. 133. 5.</_>
    <_>
      74. 140. 139. 8.</_>
    <_>
      56. 135. 141. 12.</_>
    <_>
      77. 152. 140. 1.</_>
    <_>
      71. 141. 136. 4.</_>
    <_>
      85. 144. 139. 4.</_>
    <_>
      78. 143. 142. 7.</_>
    <_>
      85. 144. 141. 6.</_>
    <_>
      65. 131. 138. 16.</_>
    <_>
      88. 142. 140. 6.</_>
    <_>
      85. 147. 140. 3.</_>
    <_>
      83. 144. 138. 4.</_>
    <_>
      89. 144. 140. 5.</_>
    <_>
      82. 144. 139. 4.</_>
    <_>
      78. 141. 139. 6.</_>
    <_>
      79. 138. 143. 11.</_>
    <_>
      71. 138. 138. 7.</_>
    <_>
      67. 137. 143. 12.</_>
    <_>
      83. 137. 140. 9.</_>
    <_>
      76. 137. 138. 9.</_>
    <_>
      72. 139. 138. 7.</_>
    <_>
      65. 136. 141. 11.</_>
    <_>
      65. 132. 137. 14.</_>
    <_>
      61. 133. 137. 13.</_>
    <_>
      66. 130. 136. 15.</_>
    <_>
      65. 132. 137. 14.</_>
    <_>
      55. 128. 142. 21.</_>
    <_>
      49. 129. 138. 18.</_>
    <_>
      56. 124. 139. 32.</_>
    <_>
      77. 133. 133. 7.</_>
    <_>
      69. 134. 132. 5.</_>
    <_>
      74. 134. 134. 8.</_>
    <_>
      80. 136. 134. 6.</_>
    <_>
      70. 135. 133. 5.</_>
    <_>
      77. 133. 134. 9.</_>
    <_>
      71. 137. 136. 7.</_>
    <_>
      52. 131. 129. 0.</_>
    <_>
      46. 133. 131. 5.</_>
    <_>
      52. 134. 133. 7.</_>
    <_>
      51. 134. 130. 0.</_>
    <_>
      45. 132. 132. 7.</_>
    <_>
      43. 133. 131. 5.</_>
    <_>
      47. 130. 130. 9.</_>
    <_>
      52. 131. 129. 0.</_>
    <_>
      47. 130. 130. 9.</_>
    <_>
      56. 130. 132. 13.</_>
    <_>
      63. 130. 134. 16.</_>
    <_>
      52. 130. 133. 14.</_>
    <_>
      64. 132. 135. 11.</_>
    <_>
      48. 131. 131. 8.</_>
    <_>
      78. 138. 136. 7.</_>
    <_>
      52. 134. 134. 8.</_>
    <_>
      49. 132. 134. 10.</_>
    <_>
      78. 138. 138. 8.</_>
    <_>
      45. 133. 131. 5.</_>
    <_>
      65. 135. 136. 8.</_>
    <_>
      65. 134. 138. 12.</_>
    <_>
      64. 133. 136. 12.</_>
    <_>
      47. 132. 132. 6.</_>
    <_>
      47. 131. 131. 6.</_>
    <_>
      50. 128. 131. 18.</_>
    <_>
      63. 139. 140. 8.</_>
    <_>
      52. 130. 134. 13.</_>
    <_>
      48. 129. 132. 15.</_>
    <_>
      52. 133. 136. 12.</_>
    <_>
      61. 132. 138. 14.</_>
    <_>
      50. 130. 135. 15.</_>
    <_>
      51. 128. 133. 19.</_>
    <_>
      48. 130. 129. 5.</_>
    <_>
      75. 139. 138. 7.</_>
    <_>
      66. 135. 137. 10.</_>
    <_>
      55. 130. 134. 16.</_>
    <_>
      56. 130. 133. 13.</_>
    <_>
      49. 132. 133. 9.</_>
    <_>
      40. 133. 131. 5.</_>
    <_>
      43. 134. 133. 5.</_>
    <_>
      61. 131. 135. 14.</_>
    <_>
      47. 131. 132. 12.</_>
    <_>
      78. 143. 138. 4.</_>
    <_>
      47. 130. 131. 10.</_>
    <_>
      74. 134. 132. 5.</_>
    <_>
      64. 140. 140. 8.</_>
    <_>
      60. 131. 137. 16.</_>
    <_>
      44. 131. 130. 7.</_>
    <_>
      74. 140. 139. 8.</_>
    <_>
      48. 132. 136. 12.</_>
    <_>
      56. 129. 131. 17.</_>
    <_>
      45. 130. 130. 6.</_>
    <_>
      74. 139. 133. 1.</_>
    <_>
      79. 134. 135. 8.</_>
    <_>
      72. 139. 137. 6.</_>
    <_>
      48. 132. 131. 5.</_>
    <_>
      47. 132. 132. 7.</_>
    <_>
      57. 130. 132. 13.</_>
    <_>
      44. 130. 130. 13.</_>
    <_>
      47. 132. 130. 3.</_>
    <_>
      47. 131. 132. 11.</_>
    <_>
      51. 131. 131. 9.</_>
    <_>
      52. 130. 130. 11.</_>
    <_>
      42. 130. 131. 11.</_>
    <_>
      47. 133. 131. 5.</_>
    <_>
      47. 133. 131. 5.</_>
    <_>
      52. 131. 133. 11.</_>
    <_>
      50. 131. 132. 9.</_>
    <_>
      48. 131. 131. 8.</_>
    <_>
      45. 133. 131. 5.</_>
    <_>
      51. 132. 132. 6.</_>
    <_>
      68. 138. 140. 9.</_>
    <_>
      53. 132. 134. 10.</_>
    <_>
      47. 131. 132. 8.</_>
    <_>
      52. 134. 132. 4.</_>
    <_>
      48. 132. 130. 3.</_>
    <_>
      70. 136. 134. 5.</_>
    <_>
      50. 131. 131. 6.</_>
    <_>
      65. 131. 133. 11.</_>
    <_>
      77. 138. 137. 5.</_>
    <_>
      46. 131. 130. 7.</_>
    <_>
      46. 130. 131. 11.</_>
    <_>
      76. 138. 136. 7.</_>
    <_>
      49. 131. 129. 0.</_>
    <_>
      75. 136. 135. 6.</_>
    <_>
      76. 132. 134. 11.</_>
    <_>
      78. 135. 135. 7.</_>
    <_>
      76. 135. 133. 5.</_>
    <_>
      75. 134. 134. 8.</_>
    <_>
      77. 133. 132. 7.</_>
    <_>
      74. 132. 133. 9.</_>
    <_>
      76. 137. 137. 8.</_>
    <_>
      63. 133. 138. 13.</_>
    <_>
      69. 137. 137. 8.</_>
    <_>
      63. 131. 138. 16.</_>
    <_>
      49. 131. 138. 16.</_>
    <_>
      59. 130. 136. 16.</_>
    <_>
      47. 130. 133. 14.</_>
    <_>
      69. 139. 138. 7.</_>
    <_>
      50. 132. 133. 9.</_>
    <_>
      48. 132. 133. 9.</_>
    <_>
      46. 130. 131. 10.</_>
    <_>
      46. 130. 131. 11.</_>
    <_>
      42. 130. 131. 11.</_>
    <_>
      46. 130. 131. 11.</_>
    <_>
      63. 131. 133. 12.</_>
    <_>
      86. 142. 141. 7.</_>
    <_>
      80. 138. 141. 10.</_>
    <_>
      64. 132. 137. 13.</_>
    <_>
      67. 134. 135. 10.</_>
    <_>
      55. 130. 134. 16.</_>
    <_>
      52. 130. 130. 11.</_>
    <_>
      63. 143. 134. 0.</_>
    <_>
      88. 143. 139. 5.</_>
    <_>
      83. 140. 140. 8.</_>
    <_>
      70. 140. 138. 6.</_>
    <_>
      69. 134. 132. 5.</_>
    <_>
      77. 133. 135. 10.</_>
    <_>
      80. 135. 135. 8.</_>
    <_>
      83. 146. 141. 5.</_>
    <_>
      85. 142. 141. 7.</_>
    <_>
      74. 134. 134. 7.</_>
    <_>
      68. 139. 138. 6.</_>
    <_>
      77. 133. 135. 10.</_>
    <_>
      77. 133. 135. 10.</_>
    <_>
      77. 133. 135. 10.</_>
    <_>
      81. 152. 140. 2.</_>
    <_>
      85. 147. 137. 1.</_>
    <_>
      86. 144. 139. 5.</_>
    <_>
      75. 134. 134. 8.</_>
    <_>
      64. 131. 134. 13.</_>
    <_>
      69. 133. 132. 6.</_>
    <_>
      50. 131. 130. 3.</_>
    <_>
      77. 141. 139. 7.</_>
    <_>
      70. 141. 141. 8.</_>
    <_>
      85. 139. 140. 9.</_>
    <_>
      69. 140. 140. 8.</_>
    <_>
      80. 139. 141. 9.</_>
    <_>
      80. 143. 141. 6.</_>
    <_>
      82. 147. 141. 4.</_>
    <_>
      83. 149. 141. 3.</_>
    <_>
      79. 153. 140. 1.</_>
    <_>
      83. 150. 138. 1.</_>
    <_>
      83. 149. 140. 2.</_>
    <_>
      81. 151. 140. 2.</_>
    <_>
      82. 143. 140. 6.</_>
    <_>
      79. 144. 140. 5.</_>
    <_>
      82. 149. 138. 1.</_>
    <_>
      79. 150. 138. 1.</_>
    <_>
      75. 146. 138. 3.</_>
    <_>
      74. 150. 138. 1.</_>
    <_>
      81. 149. 140. 2.</_>
    <_>
      78. 148. 139. 2.</_>
    <_>
      82. 149. 137. 0.</_>
    <_>
      85. 147. 137. 1.</_>
    <_>
      83. 148. 139. 2.</_>
    <_>
      80. 136. 138. 10.</_>
    <_>
      79. 151. 140. 2.</_>
    <_>
      78. 152. 140. 1.</_>
    <_>
      81. 154. 140. 1.</_>
    <_>
      88. 145. 139. 4.</_>
    <_>
      82. 146. 139. 3.</_>
    <_>
      84. 149. 139. 2.</_>
    <_>
      82. 149. 138. 1.</_>
    <_>
      82. 149. 141. 3.</_>
    <_>
      88. 144. 139. 4.</_>
    <_>
      79. 151. 142. 3.</_>
    <_>
      77. 142. 139. 6.</_>
    <_>
      87. 143. 139. 5.</_>
    <_>
      76. 151. 142. 3.</_>
    <_>
      78. 140. 139. 7.</_>
    <_>
      76. 152. 144. 3.</_>
    <_>
      89. 144. 138. 4.</_>
    <_>
      77. 152. 142. 3.</_>
    <_>
      75. 152. 142. 3.</_>
    <_>
      77. 151. 143. 3.</_>
    <_>
      74. 152. 144. 3.</_>
    <_>
      86. 142. 139. 5.</_>
    <_>
      76. 151. 143. 4.</_>
    <_>
      76. 152. 144. 3.</_>
    <_>
      78. 136. 139. 10.</_>
    <_>
      80. 144. 141. 6.</_>
    <_>
      84. 144. 141. 5.</_>
    <_>
      87. 144. 141. 6.</_>
    <_>
      87. 146. 140. 4.</_>
    <_>
      84. 149. 140. 3.</_>
    <_>
      77. 151. 143. 3.</_>
    <_>
      83. 152. 140. 1.</_>
    <_>
      88. 143. 139. 5.</_>
    <_>
      79. 149. 137. 0.</_>
    <_>
      73. 151. 140. 2.</_>
    <_>
      75. 139. 138. 7.</_>
    <_>
      77. 137. 139. 10.</_>
    <_>
      81. 136. 138. 9.</_>
    <_>
      48. 132. 135. 13.</_>
    <_>
      58. 125. 135. 35.</_>
    <_>
      80. 137. 139. 9.</_>
    <_>
      66. 132. 136. 13.</_>
    <_>
      81. 139. 137. 6.</_>
    <_>
      83. 138. 138. 7.</_>
    <_>
      69. 143. 135. 2.</_>
    <_>
      77. 136. 138. 10.</_>
    <_>
      76. 137. 137. 8.</_>
    <_>
      75. 139. 138. 7.</_>
    <_>
      76. 140. 136. 4.</_>
    <_>
      70. 137. 136. 7.</_>
    <_>
      71. 137. 136. 7.</_>
    <_>
      84. 142. 141. 7.</_>
    <_>
      81. 136. 140. 11.</_>
    <_>
      71. 136. 135. 7.</_>
    <_>
      64. 135. 139. 10.</_>
    <_>
      70. 138. 137. 7.</_>
    <_>
      80. 136. 134. 6.</_>
    <_>
      47. 131. 132. 8.</_>
    <_>
      52. 134. 136. 10.</_>
    <_>
      48. 132. 136. 13.</_>
    <_>
      47. 133. 133. 8.</_>
    <_>
      66. 133. 139. 13.</_>
    <_>
      73. 137. 140. 11.</_>
    <_>
      74. 150. 140. 2.</_>
    <_>
      69. 136. 139. 10.</_>
    <_>
      53. 130. 135. 17.</_>
    <_>
      43. 129. 131. 13.</_>
    <_>
      75. 148. 143. 5.</_>
    <_>
      43. 129. 131. 13.</_>
    <_>
      43. 134. 133. 5.</_>
    <_>
      77. 151. 140. 1.</_>
    <_>
      46. 130. 131. 11.</_>
    <_>
      52. 134. 135. 9.</_>
    <_>
      52. 129. 133. 16.</_>
    <_>
      67. 134. 135. 10.</_>
    <_>
      64. 131. 134. 13.</_>
    <_>
      77. 133. 135. 10.</_>
    <_>
      77. 133. 135. 10.</_>
    <_>
      77. 133. 135. 10.</_>
    <_>
      79. 135. 135. 8.</_>
    <_>
      76. 132. 134. 11.</_>
    <_>
      70. 141. 139. 7.</_>
    <_>
      89. 144. 138. 4.</_>
    <_>
      88. 145. 139. 4.</_>
    <_>
      78. 143. 138. 4.</_>
    <_>
      85. 145. 138. 3.</_>
    <_>
      92. 142. 140. 6.</_>
    <_>
      71. 143. 138. 4.</_>
    <_>
      91. 144. 139. 5.</_>
    <_>
      89. 144. 139. 5.</_>
    <_>
      87. 144. 138. 4.</_>
    <_>
      82. 144. 139. 5.</_>
    <_>
      91. 143. 139. 5.</_>
    <_>
      91. 143. 139. 5.</_>
    <_>
      89. 143. 139. 5.</_>
    <_>
      88. 143. 139. 5.</_>
    <_>
      91. 143. 139. 5.</_>
    <_>
      91. 143. 139. 5.</_>
    <_>
      88. 143. 139. 5.</_>
    <_>
      89. 142. 139. 6.</_>
    <_>
      88. 143. 139. 5.</_>
    <_>
      91. 143. 139. 5.</_>
    <_>
      86. 142. 139. 5.</_>
    <_>
      88. 142. 138. 5.</_>
    <_>
      58. 129. 134. 16.</_>
    <_>
      56. 129. 136. 18.</_>
    <_>
      65. 131. 133. 11.</_>
    <_>
      51. 134. 130. 0.</_>
    <_>
      64. 140. 140. 8.</_>
    <_>
      62. 138. 141. 10.</_>
    <_>
      54. 136. 142. 11.</_>
    <_>
      83. 138. 140. 10.</_>
    <_>
      45. 135. 138. 10.</_>
    <_>
      46. 138. 139. 9.</_>
    <_>
      48. 138. 140. 9.</_>
    <_>
      50. 134. 138. 12.</_>
    <_>
      54. 134. 138. 12.</_>
    <_>
      54. 133. 140. 15.</_>
    <_>
      52. 134. 138. 12.</_>
    <_>
      69. 141. 136. 4.</_>
    <_>
      73. 135. 138. 10.</_>
    <_>
      87. 145. 138. 3.</_>
    <_>
      63. 142. 133. 0.</_>
    <_>
      77. 153. 144. 3.</_>
    <_>
      82. 138. 140. 9.</_>
    <_>
      61. 140. 133. 0.</_>
    <_>
      77. 147. 138. 2.</_>
    <_>
      83. 138. 139. 9.</_>
    <_>
      76. 132. 134. 11.</_>
    <_>
      84. 146. 143. 6.</_>
    <_>
      82. 144. 142. 6.</_>
    <_>
      65. 139. 138. 8.</_>
    <_>
      67. 136. 140. 11.</_>
    <_>
      65. 136. 139. 10.</_>
    <_>
      78. 136. 139. 10.</_>
    <_>
      66. 140. 138. 6.</_>
    <_>
      79. 138. 143. 11.</_>
    <_>
      50. 134. 133. 5.</_>
    <_>
      83. 138. 139. 9.</_>
    <_>
      52. 134. 135. 9.</_>
    <_>
      80. 137. 139. 9.</_>
    <_>
      73. 135. 138. 10.</_>
    <_>
      75. 135. 139. 11.</_>
    <_>
      78. 136. 139. 10.</_>
    <_>
      65. 139. 139. 7.</_>
    <_>
      76. 138. 136. 6.</_>
    <_>
      64. 140. 134. 1.</_>
    <_>
      64. 135. 143. 14.</_>
    <_>
      73. 141. 136. 3.</_>
    <_>
      63. 138. 142. 11.</_>
    <_>
      67. 140. 138. 6.</_>
    <_>
      68. 136. 138. 10.</_>
    <_>
      67. 135. 138. 10.</_>
    <_>
      64. 132. 137. 13.</_>
    <_>
      66. 139. 140. 8.</_>
    <_>
      69. 140. 139. 6.</_>
    <_>
      69. 136. 137. 9.</_>
    <_>
      65. 132. 137. 14.</_>
    <_>
      64. 133. 136. 12.</_>
    <_>
      43. 136. 140. 11.</_>
    <_>
      52. 134. 134. 8.</_>
    <_>
      52. 137. 140. 11.</_>
    <_>
      52. 134. 133. 7.</_>
    <_>
      51. 132. 132. 6.</_>
    <_>
      50. 134. 135. 10.</_>
    <_>
      50. 130. 134. 15.</_>
    <_>
      45. 132. 132. 7.</_>
    <_>
      51. 131. 133. 11.</_>
    <_>
      47. 133. 133. 7.</_>
    <_>
      72. 139. 137. 6.</_>
    <_>
      40. 128. 133. 19.</_>
    <_>
      58. 129. 133. 16.</_>
    <_>
      61. 140. 142. 10.</_>
    <_>
      79. 147. 139. 3.</_>
    <_>
      84. 149. 140. 3.</_>
    <_>
      87. 144. 141. 6.</_>
    <_>
      83. 150. 141. 3.</_>
    <_>
      83. 149. 140. 3.</_>
    <_>
      79. 147. 140. 4.</_>
    <_>
      81. 147. 142. 4.</_>
    <_>
      83. 148. 139. 2.</_>
    <_>
      84. 150. 140. 2.</_>
    <_>
      70. 135. 134. 5.</_>
    <_>
      79. 135. 134. 7.</_>
    <_>
      67. 133. 135. 10.</_>
    <_>
      77. 133. 135. 10.</_>
    <_>
      70. 134. 133. 6.</_>
    <_>
      73. 135. 135. 7.</_>
    <_>
      57. 130. 135. 15.</_>
    <_>
      83. 147. 137. 1.</_>
    <_>
      71. 141. 135. 2.</_>
    <_>
      68. 144. 135. 0.</_>
    <_>
      45. 133. 131. 5.</_>
    <_>
      77. 136. 135. 7.</_>
    <_>
      57. 130. 132. 13.</_>
    <_>
      46. 133. 131. 5.</_>
    <_>
      46. 133. 130. 3.</_>
    <_>
      69. 133. 132. 6.</_>
    <_>
      48. 132. 131. 5.</_>
    <_>
      72. 139. 137. 6.</_>
    <_>
      47. 133. 131. 5.</_>
    <_>
      88. 143. 139. 5.</_>
    <_>
      68. 141. 133. 0.</_>
    <_>
      69. 141. 135. 3.</_>
    <_>
      71. 139. 137. 6.</_>
    <_>
      72. 139. 137. 6.</_>
    <_>
      69. 143. 135. 2.</_>
    <_>
      73. 140. 138. 6.</_>
    <_>
      73. 141. 136. 4.</_>
    <_>
      75. 142. 138. 4.</_>
    <_>
      77. 141. 140. 6.</_>
    <_>
      77. 142. 139. 6.</_>
    <_>
      44. 136. 133. 3.</_>
    <_>
      60. 130. 137. 16.</_>
    <_>
      64. 132. 137. 13.</_>
    <_>
      67. 132. 136. 13.</_>
    <_>
      55. 138. 139. 9.</_>
    <_>
      54. 137. 140. 10.</_>
    <_>
      75. 135. 139. 11.</_>
    <_>
      76. 135. 139. 11.</_>
    <_>
      73. 135. 138. 10.</_>
    <_>
      67. 137. 138. 9.</_>
    <_>
      76. 136. 140. 11.</_>
    <_>
      75. 135. 139. 11.</_>
    <_>
      76. 138. 139. 8.</_>
    <_>
      76. 135. 139. 11.</_>
    <_>
      66. 132. 137. 14.</_>
    <_>
      64. 132. 137. 13.</_>
    <_>
      64. 132. 137. 13.</_>
    <_>
      65. 131. 137. 15.</_>
    <_>
      63. 133. 138. 13.</_>
    <_>
      64. 132. 137. 13.</_>
    <_>
      64. 132. 137. 13.</_>
    <_>
      47. 132. 132. 8.</_>
    <_>
      64. 132. 137. 13.</_>
    <_>
      54. 131. 138. 15.</_>
    <_>
      49. 133. 135. 11.</_>
    <_>
      68. 134. 136. 9.</_>
    <_>
      58. 131. 135. 14.</_>
    <_>
      51. 130. 134. 15.</_>
    <_>
      66. 132. 136. 13.</_>
    <_>
      77. 143. 140. 6.</_>
    <_>
      82. 141. 141. 8.</_>
    <_>
      77. 142. 140. 7.</_>
    <_>
      78. 140. 139. 7.</_>
    <_>
      70. 141. 140. 8.</_>
    <_>
      62. 138. 142. 11.</_>
    <_>
      77. 150. 140. 2.</_>
    <_>
      66. 139. 140. 8.</_>
    <_>
      63. 139. 140. 8.</_>
    <_>
      53. 132. 134. 10.</_>
    <_>
      65. 145. 135. 0.</_>
    <_>
      83. 150. 138. 1.</_>
    <_>
      77. 149. 139. 1.</_>
    <_>
      63. 143. 134. 0.</_>
    <_>
      74. 153. 141. 1.</_>
    <_>
      75. 152. 140. 1.</_>
    <_>
      83. 152. 140. 1.</_>
    <_>
      81. 149. 138. 1.</_>
    <_>
      83. 147. 139. 3.</_>
    <_>
      73. 152. 140. 1.</_>
    <_>
      77. 147. 138. 2.</_>
    <_>
      75. 149. 139. 1.</_>
    <_>
      83. 149. 137. 0.</_>
    <_>
      81. 148. 138. 1.</_>
    <_>
      67. 142. 134. 1.</_>
    <_>
      65. 136. 141. 11.</_>
    <_>
      69. 141. 136. 3.</_>
    <_>
      74. 142. 137. 4.</_>
    <_>
      67. 133. 144. 16.</_>
    <_>
      65. 134. 141. 14.</_>
    <_>
      60. 133. 139. 13.</_>
    <_>
      62. 133. 141. 14.</_>
    <_>
      88. 145. 137. 3.</_>
    <_>
      84. 150. 140. 2.</_>
    <_>
      60. 131. 139. 16.</_>
    <_>
      48. 132. 136. 13.</_>
    <_>
      82. 148. 139. 2.</_>
    <_>
      69. 133. 142. 15.</_>
    <_>
      54. 130. 137. 16.</_>
    <_>
      52. 132. 136. 12.</_>
    <_>
      49. 136. 140. 11.</_>
    <_>
      65. 134. 141. 14.</_>
    <_>
      77. 153. 142. 2.</_>
    <_>
      78. 151. 142. 3.</_>
    <_>
      77. 151. 143. 3.</_>
    <_>
      77. 153. 142. 2.</_>
    <_>
      77. 152. 144. 3.</_>
    <_>
      74. 152. 144. 3.</_>
    <_>
      74. 152. 144. 3.</_>
    <_>
      76. 152. 144. 3.</_>
    <_>
      77. 152. 145. 4.</_>
    <_>
      75. 151. 145. 5.</_>
    <_>
      75. 153. 142. 2.</_>
    <_>
      82. 144. 140. 5.</_>
    <_>
      82. 149. 140. 3.</_>
    <_>
      87. 146. 140. 4.</_>
    <_>
      48. 132. 130. 3.</_>
    <_>
      50. 131. 131. 6.</_>
    <_>
      43. 133. 131. 5.</_>
    <_>
      84. 142. 142. 8.</_>
    <_>
      87. 144. 141. 6.</_>
    <_>
      87. 144. 141. 6.</_>
    <_>
      82. 144. 141. 6.</_>
    <_>
      86. 143. 140. 6.</_>
    <_>
      86. 144. 141. 6.</_>
    <_>
      77. 144. 141. 6.</_>
    <_>
      86. 147. 140. 3.</_>
    <_>
      83. 150. 138. 1.</_>
    <_>
      77. 149. 139. 1.</_>
    <_>
      81. 146. 140. 4.</_>
    <_>
      85. 147. 137. 1.</_>
    <_>
      70. 140. 138. 7.</_>
    <_>
      85. 144. 140. 5.</_>
    <_>
      83. 141. 141. 8.</_>
    <_>
      69. 134. 132. 5.</_>
    <_>
      75. 139. 140. 9.</_>
    <_>
      73. 135. 135. 7.</_>
    <_>
      71. 137. 135. 6.</_>
    <_>
      43. 129. 137. 20.</_>
    <_>
      63. 133. 138. 13.</_>
    <_>
      85. 140. 140. 8.</_>
    <_>
      63. 131. 138. 16.</_>
    <_>
      75. 140. 140. 8.</_>
    <_>
      83. 139. 140. 9.</_>
    <_>
      48. 135. 138. 10.</_>
    <_>
      71. 138. 137. 7.</_>
    <_>
      65. 132. 137. 14.</_>
    <_>
      65. 131. 137. 15.</_>
    <_>
      66. 132. 137. 14.</_>
    <_>
      65. 132. 137. 14.</_>
    <_>
      73. 139. 133. 1.</_>
    <_>
      85. 138. 140. 10.</_>
    <_>
      64. 132. 137. 13.</_>
    <_>
      63. 132. 135. 13.</_>
    <_>
      75. 135. 139. 11.</_>
    <_>
      83. 138. 139. 9.</_>
    <_>
      63. 130. 134. 16.</_>
    <_>
      54. 130. 135. 17.</_>
    <_>
      70. 138. 137. 7.</_>
    <_>
      66. 137. 138. 8.</_>
    <_>
      82. 138. 140. 9.</_>
    <_>
      52. 130. 135. 17.</_>
    <_>
      49. 130. 138. 17.</_>
    <_>
      69. 136. 137. 8.</_>
    <_>
      48. 132. 137. 13.</_>
    <_>
      52. 134. 138. 12.</_>
    <_>
      64. 131. 138. 16.</_>
    <_>
      84. 141. 142. 8.</_>
    <_>
      79. 142. 141. 7.</_>
    <_>
      72. 139. 137. 7.</_>
    <_>
      71. 138. 138. 7.</_>
    <_>
      39. 128. 135. 21.</_>
    <_>
      68. 134. 135. 10.</_>
    <_>
      46. 130. 139. 18.</_>
    <_>
      53. 121. 132. 66.</_>
    <_>
      56. 125. 137. 32.</_>
    <_>
      57. 131. 138. 16.</_>
    <_>
      44. 135. 131. 2.</_>
    <_>
      46. 131. 131. 6.</_>
    <_>
      84. 143. 141. 6.</_>
    <_>
      86. 144. 141. 6.</_>
    <_>
      86. 144. 141. 6.</_>
    <_>
      64. 132. 137. 13.</_>
    <_>
      52. 131. 133. 11.</_>
    <_>
      50. 131. 132. 7.</_>
    <_>
      44. 133. 131. 5.</_>
    <_>
      43. 134. 133. 5.</_>
    <_>
      47. 132. 132. 7.</_>
    <_>
      49. 132. 134. 10.</_>
    <_>
      52. 134. 132. 4.</_>
    <_>
      52. 130. 134. 13.</_>
    <_>
      47. 132. 132. 7.</_>
    <_>
      67. 132. 135. 13.</_>
    <_>
      47. 130. 133. 14.</_>
    <_>
      48. 130. 133. 15.</_>
    <_>
      53. 130. 133. 15.</_>
    <_>
      56. 129. 134. 18.</_>
    <_>
      65. 130. 134. 16.</_>
    <_>
      65. 130. 134. 16.</_>
    <_>
      65. 130. 134. 16.</_>
    <_>
      65. 130. 134. 15.</_>
    <_>
      45. 131. 130. 7.</_>
    <_>
      38. 128. 134. 21.</_>
    <_>
      74. 141. 141. 8.</_>
    <_>
      79. 140. 139. 7.</_>
    <_>
      74. 151. 144. 4.</_>
    <_>
      83. 146. 140. 4.</_>
    <_>
      83. 148. 141. 3.</_>
    <_>
      81. 143. 140. 6.</_>
    <_>
      84. 149. 140. 3.</_>
    <_>
      84. 147. 142. 5.</_>
    <_>
      83. 149. 137. 0.</_>
    <_>
      79. 145. 138. 3.</_>
    <_>
      88. 143. 139. 5.</_>
    <_>
      86. 143. 141. 6.</_>
    <_>
      75. 139. 140. 8.</_>
    <_>
      71. 138. 138. 7.</_>
    <_>
      86. 144. 141. 6.</_>
    <_>
      80. 145. 140. 4.</_>
    <_>
      75. 135. 139. 11.</_>
    <_>
      69. 135. 137. 10.</_>
    <_>
      67. 135. 138. 10.</_>
    <_>
      67. 135. 138. 10.</_>
    <_>
      76. 149. 143. 4.</_>
    <_>
      82. 144. 140. 5.</_>
    <_>
      88. 143. 141. 6.</_>
    <_>
      84. 145. 142. 6.</_>
    <_>
      79. 144. 139. 5.</_>
    <_>
      79. 144. 139. 5.</_>
    <_>
      83. 147. 141. 4.</_>
    <_>
      43. 129. 131. 13.</_>
    <_>
      79. 137. 139. 9.</_>
    <_>
      67. 135. 137. 10.</_>
    <_>
      85. 140. 140. 8.</_>
    <_>
      83. 141. 140. 7.</_>
    <_>
      78. 141. 140. 7.</_>
    <_>
      76. 136. 139. 11.</_>
    <_>
      82. 145. 143. 7.</_>
    <_>
      61. 131. 139. 16.</_>
    <_>
      73. 149. 137. 0.</_>
    <_>
      69. 140. 139. 6.</_>
    <_>
      80. 154. 141. 0.</_>
    <_>
      77. 153. 141. 1.</_>
    <_>
      79. 153. 140. 1.</_>
    <_>
      67. 135. 138. 10.</_>
    <_>
      76. 152. 140. 1.</_>
    <_>
      91. 143. 139. 5.</_>
    <_>
      67. 140. 139. 7.</_>
    <_>
      88. 145. 137. 3.</_>
    <_>
      87. 145. 138. 3.</_>
    <_>
      88. 142. 141. 7.</_>
    <_>
      83. 143. 140. 6.</_>
    <_>
      82. 143. 140. 6.</_>
    <_>
      85. 143. 142. 7.</_>
    <_>
      77. 138. 142. 10.</_>
    <_>
      84. 139. 142. 10.</_>
    <_>
      83. 147. 139. 3.</_>
    <_>
      63. 132. 135. 13.</_>
    <_>
      82. 151. 140. 1.</_>
    <_>
      83. 149. 140. 3.</_>
    <_>
      84. 151. 140. 2.</_>
    <_>
      55. 128. 142. 21.</_>
    <_>
      81. 149. 137. 0.</_>
    <_>
      79. 152. 140. 1.</_>
    <_>
      86. 148. 140. 3.</_>
    <_>
      81. 147. 140. 4.</_>
    <_>
      80. 144. 141. 6.</_>
    <_>
      80. 151. 139. 1.</_>
    <_>
      79. 143. 141. 6.</_>
    <_>
      80. 144. 142. 6.</_>
    <_>
      91. 144. 139. 5.</_>
    <_>
      82. 145. 141. 5.</_>
    <_>
      83. 146. 141. 4.</_>
    <_>
      84. 144. 142. 6.</_>
    <_>
      79. 142. 141. 7.</_>
    <_>
      71. 141. 141. 8.</_>
    <_>
      60. 139. 143. 10.</_>
    <_>
      69. 140. 144. 10.</_>
    <_>
      45. 135. 138. 10.</_>
    <_>
      43. 136. 140. 11.</_>
    <_>
      47. 135. 138. 10.</_>
    <_>
      84. 146. 142. 6.</_>
    <_>
      46. 138. 139. 9.</_>
    <_>
      54. 136. 142. 11.</_>
    <_>
      91. 144. 139. 5.</_>
    <_>
      82. 146. 139. 3.</_>
    <_>
      65. 138. 141. 10.</_>
    <_>
      62. 138. 142. 11.</_>
    <_>
      63. 139. 144. 11.</_>
    <_>
      86. 144. 139. 5.</_>
    <_>
      81. 147. 140. 4.</_>
    <_>
      83. 146. 140. 4.</_>
    <_>
      83. 147. 139. 3.</_>
    <_>
      77. 152. 142. 2.</_>
    <_>
      76. 136. 139. 11.</_>
    <_>
      80. 152. 141. 2.</_>
    <_>
      83. 151. 140. 1.</_>
    <_>
      83. 147. 139. 3.</_>
    <_>
      86. 144. 139. 5.</_>
    <_>
      91. 144. 139. 5.</_>
    <_>
      88. 144. 139. 4.</_>
    <_>
      80. 143. 141. 6.</_>
    <_>
      64. 140. 134. 1.</_>
    <_>
      70. 141. 139. 7.</_>
    <_>
      70. 142. 142. 8.</_>
    <_>
      69. 140. 140. 8.</_>
    <_>
      50. 135. 135. 9.</_>
    <_>
      69. 139. 142. 10.</_>
    <_>
      65. 139. 141. 9.</_>
    <_>
      80. 139. 141. 9.</_>
    <_>
      62. 134. 136. 10.</_>
    <_>
      63. 136. 142. 12.</_>
    <_>
      60. 137. 142. 11.</_>
    <_>
      63. 138. 142. 11.</_>
    <_>
      60. 139. 142. 10.</_>
    <_>
      65. 138. 141. 11.</_>
    <_>
      52. 137. 140. 11.</_>
    <_>
      55. 137. 141. 11.</_>
    <_>
      70. 135. 143. 13.</_>
    <_>
      46. 135. 137. 10.</_>
    <_>
      48. 138. 140. 9.</_>
    <_>
      54. 136. 141. 11.</_>
    <_>
      68. 138. 146. 13.</_>
    <_>
      66. 138. 143. 11.</_>
    <_>
      76. 138. 144. 12.</_>
    <_>
      83. 139. 141. 9.</_>
    <_>
      81. 137. 137. 7.</_>
    <_>
      68. 138. 144. 11.</_>
    <_>
      64. 131. 138. 15.</_>
    <_>
      83. 141. 140. 8.</_>
    <_>
      82. 138. 140. 9.</_>
    <_>
      88. 143. 140. 6.</_>
    <_>
      82. 149. 140. 3.</_>
    <_>
      91. 143. 139. 5.</_>
    <_>
      80. 145. 138. 3.</_>
    <_>
      83. 147. 137. 1.</_>
    <_>
      85. 141. 141. 7.</_>
    <_>
      81. 143. 140. 5.</_>
    <_>
      86. 142. 140. 6.</_>
    <_>
      69. 139. 134. 2.</_>
    <_>
      69. 140. 139. 6.</_>
    <_>
      69. 140. 139. 6.</_>
    <_>
      63. 141. 133. 0.</_>
    <_>
      67. 142. 134. 0.</_>
    <_>
      65. 141. 133. 0.</_>
    <_>
      54. 133. 133. 9.</_>
    <_>
      79. 144. 140. 5.</_>
    <_>
      80. 152. 140. 1.</_>
    <_>
      83. 150. 138. 1.</_>
    <_>
      74. 147. 140. 3.</_>
    <_>
      75. 149. 140. 2.</_>
    <_>
      82. 148. 137. 0.</_>
    <_>
      76. 152. 140. 1.</_>
    <_>
      67. 133. 135. 10.</_>
    <_>
      54. 134. 138. 12.</_>
    <_>
      40. 128. 133. 19.</_>
    <_>
      85. 143. 140. 6.</_>
    <_>
      74. 142. 137. 4.</_>
    <_>
      76. 141. 138. 6.</_>
    <_>
      77. 143. 140. 5.</_>
    <_>
      86. 143. 141. 6.</_>
    <_>
      82. 144. 141. 6.</_>
    <_>
      85. 142. 141. 7.</_>
    <_>
      80. 140. 139. 7.</_>
    <_>
      80. 144. 140. 6.</_>
    <_>
      71. 141. 141. 8.</_>
    <_>
      85. 144. 141. 6.</_>
    <_>
      67. 141. 141. 8.</_>
    <_>
      57. 123. 138. 36.</_>
    <_>
      69. 144. 135. 0.</_>
    <_>
      50. 131. 136. 13.</_>
    <_>
      66. 132. 137. 14.</_>
    <_>
      83. 150. 140. 2.</_>
    <_>
      84. 152. 140. 1.</_>
    <_>
      81. 150. 140. 2.</_>
    <_>
      80. 147. 139. 3.</_>
    <_>
      75. 148. 143. 5.</_>
    <_>
      88. 143. 138. 4.</_>
    <_>
      83. 142. 141. 7.</_>
    <_>
      74. 152. 145. 4.</_>
    <_>
      78. 152. 143. 3.</_>
    <_>
      75. 152. 143. 3.</_>
    <_>
      77. 154. 143. 2.</_>
    <_>
      75. 153. 145. 4.</_>
    <_>
      77. 154. 143. 2.</_>
    <_>
      77. 153. 142. 2.</_>
    <_>
      76. 152. 142. 2.</_>
    <_>
      82. 147. 140. 3.</_>
    <_>
      85. 149. 140. 3.</_>
    <_>
      67. 142. 135. 2.</_>
    <_>
      67. 142. 139. 6.</_>
    <_>
      76. 149. 142. 4.</_>
    <_>
      82. 149. 139. 2.</_>
    <_>
      46. 135. 138. 10.</_>
    <_>
      83. 149. 138. 1.</_>
    <_>
      83. 150. 138. 1.</_>
    <_>
      73. 150. 140. 2.</_>
    <_>
      81. 147. 140. 4.</_>
    <_>
      77. 150. 140. 2.</_>
    <_>
      82. 147. 140. 4.</_>
    <_>
      81. 154. 140. 1.</_>
    <_>
      74. 148. 140. 2.</_>
    <_>
      80. 153. 140. 1.</_>
    <_>
      68. 144. 135. 0.</_>
    <_>
      70. 143. 135. 1.</_>
    <_>
      72. 143. 135. 1.</_>
    <_>
      65. 145. 135. 0.</_>
    <_>
      85. 142. 142. 8.</_>
    <_>
      85. 143. 141. 6.</_>
    <_>
      74. 147. 140. 3.</_>
    <_>
      77. 133. 132. 7.</_>
    <_>
      75. 152. 141. 2.</_>
    <_>
      48. 132. 136. 13.</_>
    <_>
      47. 133. 137. 13.</_>
    <_>
      61. 133. 137. 13.</_>
    <_>
      52. 134. 136. 10.</_>
    <_>
      70. 135. 133. 6.</_>
    <_>
      43. 125. 131. 55.</_>
    <_>
      88. 143. 140. 6.</_>
    <_>
      84. 138. 139. 8.</_>
    <_>
      61. 126. 134. 30.</_>
    <_>
      80. 141. 139. 7.</_>
    <_>
      75. 142. 138. 4.</_>
    <_>
      83. 142. 140. 6.</_>
    <_>
      69. 143. 140. 6.</_>
    <_>
      83. 138. 139. 9.</_>
    <_>
      77. 143. 140. 5.</_>
    <_>
      83. 142. 141. 7.</_>
    <_>
      80. 138. 141. 10.</_>
    <_>
      83. 138. 138. 7.</_>
    <_>
      76. 138. 136. 6.</_>
    <_>
      69. 137. 136. 7.</_>
    <_>
      65. 131. 138. 17.</_>
    <_>
      70. 138. 137. 7.</_>
    <_>
      64. 141. 133. 0.</_>
    <_>
      79. 137. 139. 9.</_>
    <_>
      68. 134. 136. 9.</_>
    <_>
      46. 131. 130. 7.</_>
    <_>
      82. 147. 140. 4.</_>
    <_>
      86. 144. 139. 5.</_>
    <_>
      81. 143. 139. 5.</_>
    <_>
      87. 143. 137. 4.</_>
    <_>
      69. 141. 136. 4.</_>
    <_>
      73. 139. 133. 1.</_>
    <_>
      71. 140. 135. 3.</_>
    <_>
      68. 137. 136. 7.</_>
    <_>
      82. 138. 140. 9.</_>
    <_>
      69. 137. 136. 7.</_>
    <_>
      65. 137. 139. 10.</_>
    <_>
      69. 141. 138. 6.</_>
    <_>
      70. 136. 134. 5.</_>
    <_>
      77. 153. 142. 2.</_>
    <_>
      77. 152. 140. 0.</_>
    <_>
      81. 150. 140. 2.</_>
    <_>
      76. 136. 139. 11.</_>
    <_>
      80. 151. 141. 2.</_>
    <_>
      84. 151. 141. 2.</_>
    <_>
      86. 148. 140. 3.</_>
    <_>
      76. 150. 143. 4.</_>
    <_>
      68. 136. 139. 11.</_>
    <_>
      75. 149. 142. 3.</_>
    <_>
      74. 147. 141. 4.</_>
    <_>
      77. 154. 143. 2.</_>
    <_>
      77. 153. 142. 2.</_>
    <_>
      79. 151. 139. 1.</_>
    <_>
      84. 147. 140. 3.</_>
    <_>
      81. 151. 140. 2.</_>
    <_>
      43. 134. 133. 5.</_>
    <_>
      46. 133. 131. 5.</_>
    <_>
      40. 133. 131. 5.</_>
    <_>
      41. 134. 132. 6.</_>
    <_>
      70. 141. 134. 2.</_>
    <_>
      54. 133. 133. 9.</_>
    <_>
      69. 139. 134. 2.</_>
    <_>
      77. 142. 142. 8.</_>
    <_>
      64. 140. 134. 1.</_>
    <_>
      87. 147. 141. 4.</_>
    <_>
      83. 148. 138. 1.</_>
    <_>
      82. 149. 139. 2.</_>
    <_>
      69. 141. 136. 4.</_>
    <_>
      89. 143. 140. 6.</_>
    <_>
      69. 144. 135. 0.</_>
    <_>
      82. 143. 140. 6.</_>
    <_>
      84. 143. 140. 6.</_>
    <_>
      73. 141. 136. 3.</_>
    <_>
      82. 144. 141. 6.</_>
    <_>
      82. 143. 140. 6.</_>
    <_>
      80. 149. 137. 0.</_>
    <_>
      77. 142. 140. 7.</_>
    <_>
      85. 140. 140. 8.</_>
    <_>
      91. 143. 139. 5.</_>
    <_>
      63. 139. 144. 11.</_>
    <_>
      42. 135. 139. 12.</_>
    <_>
      81. 152. 141. 2.</_>
    <_>
      84. 146. 143. 6.</_>
    <_>
      83. 147. 143. 5.</_>
    <_>
      66. 137. 138. 8.</_>
    <_>
      84. 141. 139. 7.</_>
    <_>
      85. 140. 140. 8.</_>
    <_>
      82. 138. 140. 9.</_>
    <_>
      68. 141. 133. 0.</_>
    <_>
      77. 147. 140. 3.</_>
    <_>
      81. 138. 137. 7.</_>
    <_>
      76. 149. 141. 3.</_>
    <_>
      71. 139. 139. 7.</_>
    <_>
      82. 144. 141. 6.</_>
    <_>
      79. 143. 141. 6.</_>
    <_>
      88. 143. 141. 7.</_>
    <_>
      74. 139. 140. 8.</_>
    <_>
      82. 144. 143. 7.</_>
    <_>
      82. 141. 141. 8.</_>
    <_>
      80. 144. 142. 6.</_>
    <_>
      74. 151. 144. 4.</_>
    <_>
      83. 146. 143. 6.</_>
    <_>
      76. 151. 144. 4.</_>
    <_>
      91. 143. 139. 5.</_>
    <_>
      77. 133. 135. 10.</_>
    <_>
      78. 136. 140. 11.</_>
    <_>
      50. 134. 133. 5.</_>
    <_>
      70. 138. 141. 10.</_>
    <_>
      81. 140. 143. 9.</_>
    <_>
      82. 144. 140. 4.</_>
    <_>
      78. 143. 142. 7.</_>
    <_>
      71. 143. 136. 2.</_>
    <_>
      76. 136. 141. 11.</_>
    <_>
      75. 147. 140. 3.</_>
    <_>
      71. 141. 135. 2.</_>
    <_>
      79. 140. 139. 7.</_>
    <_>
      70. 138. 137. 7.</_>
    <_>
      50. 130. 135. 15.</_>
    <_>
      67. 137. 136. 7.</_>
    <_>
      75. 135. 140. 12.</_>
    <_>
      67. 132. 135. 13.</_>
    <_>
      69. 138. 145. 13.</_>
    <_>
      76. 151. 142. 3.</_>
    <_>
      57. 126. 136. 28.</_>
    <_>
      58. 126. 135. 30.</_>
    <_>
      74. 152. 144. 3.</_>
    <_>
      76. 153. 142. 2.</_>
    <_>
      62. 134. 136. 10.</_>
    <_>
      56. 130. 133. 13.</_>
    <_>
      81. 150. 137. 0.</_>
    <_>
      87. 147. 141. 4.</_>
    <_>
      55. 131. 138. 16.</_>
    <_>
      77. 149. 141. 3.</_>
    <_>
      68. 137. 145. 12.</_>
    <_>
      86. 149. 140. 3.</_>
    <_>
      77. 147. 140. 3.</_>
    <_>
      73. 141. 139. 6.</_>
    <_>
      82. 144. 143. 7.</_>
    <_>
      42. 129. 136. 20.</_>
    <_>
      42. 129. 136. 20.</_>
    <_>
      47. 135. 136. 8.</_>
    <_>
      74. 149. 137. 0.</_>
    <_>
      79. 145. 138. 3.</_>
    <_>
      85. 139. 140. 9.</_>
    <_>
      64. 135. 143. 14.</_>
    <_>
      63. 131. 133. 12.</_>
    <_>
      55. 135. 139. 12.</_>
    <_>
      57. 131. 138. 16.</_>
    <_>
      63. 133. 138. 13.</_>
    <_>
      55. 133. 140. 15.</_>
    <_>
      61. 131. 139. 16.</_>
    <_>
      59. 134. 138. 13.</_>
    <_>
      83. 138. 139. 9.</_>
    <_>
      52. 125. 134. 33.</_>
    <_>
      64. 130. 137. 16.</_>
    <_>
      86. 148. 140. 3.</_>
    <_>
      54. 133. 140. 15.</_>
    <_>
      61. 133. 141. 15.</_>
    <_>
      67. 132. 135. 13.</_>
    <_>
      82. 140. 140. 8.</_>
    <_>
      64. 139. 141. 10.</_>
    <_>
      75. 135. 140. 12.</_>
    <_>
      83. 146. 140. 4.</_>
    <_>
      82. 145. 143. 7.</_>
    <_>
      91. 143. 139. 5.</_>
    <_>
      80. 145. 140. 5.</_>
    <_>
      70. 139. 137. 6.</_>
    <_>
      68. 134. 135. 10.</_>
    <_>
      86. 148. 140. 3.</_>
    <_>
      82. 147. 140. 4.</_>
    <_>
      82. 146. 142. 5.</_>
    <_>
      65. 139. 138. 8.</_>
    <_>
      84. 147. 142. 5.</_>
    <_>
      61. 133. 140. 13.</_>
    <_>
      83. 150. 140. 2.</_>
    <_>
      83. 148. 141. 3.</_>
    <_>
      80. 145. 139. 3.</_>
    <_>
      83. 150. 141. 3.</_>
    <_>
      74. 148. 140. 2.</_>
    <_>
      84. 149. 140. 3.</_>
    <_>
      85. 145. 138. 3.</_>
    <_>
      74. 150. 138. 1.</_>
    <_>
      79. 151. 139. 1.</_>
    <_>
      58. 124. 137. 34.</_>
    <_>
      48. 125. 137. 30.</_>
    <_>
      47. 133. 131. 5.</_>
    <_>
      51. 128. 133. 19.</_>
    <_>
      70. 141. 139. 7.</_>
    <_>
      82. 138. 140. 9.</_>
    <_>
      75. 135. 139. 11.</_>
    <_>
      49. 136. 140. 11.</_>
    <_>
      75. 151. 139. 1.</_>
    <_>
      63. 136. 141. 12.</_>
    <_>
      88. 141. 141. 8.</_>
    <_>
      79. 144. 137. 3.</_>
    <_>
      69. 133. 132. 6.</_>
    <_>
      70. 136. 134. 5.</_>
    <_>
      84. 149. 139. 2.</_>
    <_>
      79. 140. 139. 7.</_>
    <_>
      65. 132. 137. 14.</_>
    <_>
      47. 133. 137. 13.</_>
    <_>
      82. 147. 140. 3.</_>
    <_>
      82. 148. 139. 2.</_>
    <_>
      75. 152. 144. 3.</_>
    <_>
      80. 146. 138. 3.</_>
    <_>
      77. 154. 141. 1.</_>
    <_>
      79. 151. 139. 1.</_>
    <_>
      83. 147. 140. 3.</_>
    <_>
      72. 149. 137. 0.</_>
    <_>
      89. 143. 139. 5.</_>
    <_>
      64. 140. 135. 2.</_>
    <_>
      71. 139. 137. 6.</_>
    <_>
      74. 139. 133. 1.</_>
    <_>
      87. 143. 139. 5.</_>
    <_>
      81. 143. 140. 5.</_>
    <_>
      80. 132. 133. 8.</_>
    <_>
      47. 131. 131. 9.</_>
    <_>
      48. 131. 131. 8.</_>
    <_>
      83. 142. 142. 8.</_>
    <_>
      50. 131. 129. 0.</_>
    <_>
      48. 132. 130. 3.</_>
    <_>
      82. 152. 141. 2.</_>
    <_>
      72. 137. 142. 12.</_>
    <_>
      75. 135. 139. 11.</_>
    <_>
      61. 126. 134. 30.</_>
    <_>
      73. 135. 138. 10.</_>
    <_>
      58. 125. 135. 35.</_>
    <_>
      62. 135. 138. 10.</_>
    <_>
      72. 150. 140. 2.</_>
    <_>
      86. 149. 140. 3.</_>
    <_>
      84. 153. 140. 1.</_>
    <_>
      82. 149. 139. 2.</_>
    <_>
      82. 147. 139. 3.</_>
    <_>
      83. 147. 137. 1.</_>
    <_>
      82. 138. 140. 9.</_>
    <_>
      82. 138. 140. 9.</_>
    <_>
      75. 135. 139. 11.</_>
    <_>
      82. 138. 140. 9.</_>
    <_>
      82. 138. 140. 9.</_>
    <_>
      72. 137. 142. 12.</_>
    <_>
      68. 137. 145. 12.</_>
    <_>
      81. 137. 137. 7.</_>
    <_>
      57. 130. 137. 16.</_>
    <_>
      62. 129. 137. 19.</_>
    <_>
      58. 131. 135. 14.</_>
    <_>
      53. 130. 136. 18.</_>
    <_>
      60. 130. 137. 16.</_>
    <_>
      57. 130. 135. 15.</_>
    <_>
      57. 126. 136. 28.</_>
    <_>
      56. 128. 136. 19.</_>
    <_>
      69. 145. 135. 0.</_>
    <_>
      61. 140. 133. 0.</_>
    <_>
      50. 131. 132. 9.</_>
    <_>
      83. 148. 141. 4.</_>
    <_>
      81. 147. 140. 4.</_>
    <_>
      60. 139. 143. 10.</_>
    <_>
      81. 151. 140. 2.</_>
    <_>
      79. 146. 139. 4.</_>
    <_>
      77. 142. 140. 7.</_>
    <_>
      85. 143. 141. 6.</_>
    <_>
      81. 147. 140. 4.</_>
    <_>
      85. 149. 140. 3.</_>
    <_>
      79. 149. 137. 0.</_>
    <_>
      82. 148. 138. 1.</_>
    <_>
      77. 152. 140. 0.</_>
    <_>
      74. 149. 138. 1.</_>
    <_>
      76. 140. 136. 4.</_>
    <_>
      78. 135. 140. 12.</_>
    <_>
      63. 134. 140. 13.</_>
    <_>
      84. 138. 141. 10.</_>
    <_>
      84. 138. 139. 9.</_>
    <_>
      79. 150. 139. 1.</_>
    <_>
      83. 139. 138. 6.</_>
    <_>
      79. 149. 137. 0.</_>
    <_>
      82. 147. 139. 3.</_>
    <_>
      71. 136. 135. 7.</_>
    <_>
      71. 140. 135. 3.</_>
    <_>
      64. 135. 139. 10.</_>
    <_>
      84. 149. 140. 3.</_>
    <_>
      75. 147. 140. 3.</_>
    <_>
      76. 151. 143. 4.</_>
    <_>
      76. 151. 144. 4.</_>
    <_>
      76. 152. 145. 4.</_>
    <_>
      51. 130. 134. 15.</_>
    <_>
      44. 136. 133. 3.</_>
    <_>
      68. 136. 138. 10.</_>
    <_>
      43. 136. 134. 5.</_>
    <_>
      75. 139. 138. 7.</_>
    <_>
      86. 144. 139. 5.</_>
    <_>
      50. 131. 135. 13.</_>
    <_>
      80. 147. 139. 3.</_>
    <_>
      77. 142. 138. 5.</_>
    <_>
      51. 130. 134. 15.</_>
    <_>
      51. 130. 134. 15.</_>
    <_>
      83. 140. 140. 8.</_>
    <_>
      72. 152. 140. 1.</_>
    <_>
      69. 135. 138. 11.</_>
    <_>
      75. 139. 139. 7.</_>
    <_>
      79. 151. 140. 2.</_>
    <_>
      77. 153. 142. 1.</_>
    <_>
      82. 152. 142. 2.</_>
    <_>
      88. 143. 139. 5.</_>
    <_>
      86. 144. 139. 5.</_>
    <_>
      81. 150. 137. 0.</_>
    <_>
      87. 142. 141. 7.</_>
    <_>
      74. 151. 140. 2.</_>
    <_>
      74. 150. 141. 2.</_>
    <_>
      73. 150. 140. 2.</_>
    <_>
      85. 143. 142. 7.</_>
    <_>
      81. 147. 140. 4.</_>
    <_>
      75. 140. 140. 7.</_>
    <_>
      71. 138. 138. 8.</_>
    <_>
      84. 145. 142. 6.</_>
    <_>
      73. 141. 139. 6.</_>
    <_>
      75. 139. 140. 8.</_>
    <_>
      89. 142. 141. 7.</_>
    <_>
      73. 151. 141. 2.</_>
    <_>
      82. 150. 141. 2.</_>
    <_>
      81. 147. 140. 4.</_>
    <_>
      74. 136. 139. 10.</_>
    <_>
      83. 141. 140. 8.</_>
    <_>
      83. 149. 137. 0.</_>
    <_>
      83. 144. 142. 6.</_>
    <_>
      81. 136. 140. 11.</_>
    <_>
      72. 135. 139. 12.</_>
    <_>
      67. 140. 138. 6.</_>
    <_>
      86. 144. 139. 5.</_>
    <_>
      89. 144. 139. 5.</_>
    <_>
      68. 136. 138. 10.</_>
    <_>
      83. 140. 140. 8.</_>
    <_>
      65. 137. 138. 8.</_>
    <_>
      65. 131. 138. 16.</_>
    <_>
      67. 135. 138. 10.</_>
    <_>
      80. 144. 141. 6.</_>
    <_>
      83. 138. 140. 10.</_>
    <_>
      75. 152. 141. 2.</_>
    <_>
      85. 144. 140. 6.</_>
    <_>
      76. 138. 139. 8.</_>
    <_>
      70. 141. 140. 8.</_>
    <_>
      77. 137. 139. 10.</_>
    <_>
      86. 144. 139. 5.</_>
    <_>
      82. 147. 140. 4.</_>
    <_>
      80. 147. 139. 3.</_>
    <_>
      83. 145. 141. 5.</_>
    <_>
      72. 150. 140. 2.</_>
    <_>
      84. 145. 142. 6.</_>
    <_>
      92. 143. 140. 6.</_>
    <_>
      84. 145. 140. 5.</_>
    <_>
      74. 147. 141. 4.</_>
    <_>
      67. 135. 138. 10.</_>
    <_>
      59. 130. 136. 16.</_>
    <_>
      65. 132. 138. 14.</_>
    <_>
      73. 135. 138. 10.</_>
    <_>
      84. 151. 141. 2.</_>
    <_>
      77. 152. 141. 2.</_>
    <_>
      60. 133. 138. 12.</_>
    <_>
      67. 135. 138. 10.</_>
    <_>
      78. 141. 139. 6.</_>
    <_>
      66. 137. 138. 8.</_>
    <_>
      47. 135. 136. 8.</_>
    <_>
      74. 140. 138. 6.</_>
    <_>
      66. 137. 138. 8.</_>
    <_>
      67. 136. 138. 9.</_>
    <_>
      51. 130. 134. 15.</_>
    <_>
      65. 140. 134. 1.</_>
    <_>
      58. 123. 138. 36.</_>
    <_>
      58. 123. 138. 36.</_>
    <_>
      58. 123. 138. 36.</_>
    <_>
      85. 140. 140. 8.</_>
    <_>
      87. 143. 139. 5.</_>
    <_>
      81. 143. 140. 5.</_>
    <_>
      58. 123. 138. 36.</_>
    <_>
      71. 139. 137. 6.</_>
    <_>
      81. 143. 140. 5.</_>
    <_>
      85. 140. 140. 8.</_>
    <_>
      81. 143. 140. 5.</_>
    <_>
      81. 143. 140. 5.</_>
    <_>
      82. 152. 141. 2.</_>
    <_>
      82. 138. 140. 9.</_>
    <_>
      84. 153. 140. 1.</_>
    <_>
      89. 142. 139. 5.</_>
    <_>
      71. 139. 137. 6.</_>
    <_>
      71. 139. 137. 6.</_>
    <_>
      67. 140. 139. 8.</_>
    <_>
      67. 132. 135. 13.</_>
    <_>
      67. 132. 135. 13.</_>
    <_>
      67. 132. 135. 13.</_>
    <_>
      80. 132. 133. 8.</_>
    <_>
      65. 130. 134. 16.</_>
    <_>
      78. 133. 135. 10.</_>
    <_>
      65. 130. 134. 16.</_>
    <_>
      65. 130. 134. 16.</_>
    <_>
      67. 132. 135. 13.</_>
    <_>
      80. 135. 135. 8.</_>
    <_>
      68. 133. 135. 10.</_>
    <_>
      77. 133. 135. 10.</_>
    <_>
      66. 135. 138. 11.</_>
    <_>
      58. 124. 138. 34.</_>
    <_>
      71. 139. 137. 6.</_>
    <_>
      57. 123. 138. 36.</_>
    <_>
      58. 123. 138. 36.</_>
    <_>
      49. 130. 138. 17.</_>
    <_>
      66. 139. 140. 8.</_>
    <_>
      68. 139. 138. 6.</_>
    <_>
      58. 123. 138. 36.</_>
    <_>
      58. 123. 138. 36.</_>
    <_>
      70. 140. 137. 6.</_>
    <_>
      58. 123. 138. 36.</_>
    <_>
      46. 131. 138. 17.</_>
    <_>
      64. 132. 137. 13.</_>
    <_>
      81. 143. 140. 5.</_>
    <_>
      89. 142. 139. 5.</_>
    <_>
      85. 140. 140. 8.</_>
    <_>
      51. 134. 138. 12.</_>
    <_>
      52. 134. 138. 12.</_>
    <_>
      61. 134. 139. 13.</_>
    <_>
      75. 138. 137. 7.</_>
    <_>
      42. 135. 139. 11.</_>
    <_>
      54. 131. 138. 15.</_>
    <_>
      56. 132. 138. 14.</_>
    <_>
      71. 139. 137. 6.</_>
    <_>
      81. 139. 137. 6.</_>
    <_>
      68. 137. 136. 8.</_>
    <_>
      66. 132. 136. 12.</_>
    <_>
      63. 133. 138. 13.</_>
    <_>
      67. 140. 139. 8.</_>
    <_>
      64. 132. 137. 13.</_>
    <_>
      67. 135. 138. 11.</_>
    <_>
      65. 137. 139. 10.</_>
    <_>
      71. 139. 137. 6.</_>
    <_>
      72. 139. 137. 7.</_>
    <_>
      72. 139. 137. 6.</_>
    <_>
      64. 132. 137. 13.</_>
    <_>
      76. 137. 138. 9.</_>
    <_>
      80. 137. 139. 9.</_>
    <_>
      77. 136. 138. 10.</_>
    <_>
      80. 137. 139. 9.</_>
    <_>
      81. 136. 138. 9.</_>
    <_>
      70. 138. 137. 7.</_>
    <_>
      71. 139. 137. 6.</_>
    <_>
      79. 135. 134. 7.</_>
    <_>
      70. 137. 136. 7.</_>
    <_>
      76. 139. 137. 5.</_>
    <_>
      76. 137. 137. 8.</_>
    <_>
      72. 139. 137. 7.</_>
    <_>
      80. 138. 139. 9.</_>
    <_>
      82. 139. 138. 7.</_>
    <_>
      77. 136. 136. 7.</_>
    <_>
      80. 136. 138. 10.</_>
    <_>
      69. 135. 133. 5.</_>
    <_>
      76. 137. 137. 8.</_>
    <_>
      72. 139. 135. 4.</_>
    <_>
      80. 136. 139. 11.</_>
    <_>
      83. 138. 139. 9.</_>
    <_>
      69. 139. 138. 7.</_>
    <_>
      81. 138. 137. 7.</_>
    <_>
      76. 137. 138. 9.</_>
    <_>
      83. 138. 139. 8.</_>
    <_>
      89. 142. 139. 5.</_>
    <_>
      83. 140. 139. 7.</_>
    <_>
      85. 140. 140. 8.</_>
    <_>
      77. 138. 138. 7.</_>
    <_>
      63. 133. 138. 13.</_>
    <_>
      87. 143. 139. 5.</_>
    <_>
      64. 132. 137. 13.</_>
    <_>
      55. 138. 139. 9.</_>
    <_>
      76. 137. 138. 9.</_>
    <_>
      88. 143. 138. 4.</_>
    <_>
      81. 143. 140. 6.</_>
    <_>
      86. 146. 139. 3.</_>
    <_>
      65. 132. 137. 14.</_>
    <_>
      85. 140. 140. 8.</_>
    <_>
      81. 143. 139. 5.</_>
    <_>
      64. 132. 137. 13.</_>
    <_>
      67. 135. 138. 10.</_>
    <_>
      85. 140. 140. 7.</_>
    <_>
      63. 133. 139. 13.</_>
    <_>
      85. 140. 140. 8.</_>
    <_>
      85. 140. 140. 8.</_>
    <_>
      64. 132. 137. 13.</_>
    <_>
      64. 132. 137. 13.</_>
    <_>
      71. 139. 137. 6.</_>
    <_>
      64. 132. 137. 13.</_>
    <_>
      55. 131. 138. 16.</_>
    <_>
      49. 130. 138. 17.</_>
    <_>
      69. 137. 136. 8.</_>
    <_>
      55. 130. 137. 16.</_>
    <_>
      49. 131. 138. 16.</_>
    <_>
      64. 132. 137. 13.</_>
    <_>
      62. 133. 139. 14.</_>
    <_>
      58. 124. 138. 32.</_>
    <_>
      69. 137. 137. 8.</_>
    <_>
      64. 132. 137. 13.</_>
    <_>
      53. 133. 138. 13.</_>
    <_>
      56. 131. 138. 16.</_>
    <_>
      49. 129. 138. 18.</_>
    <_>
      59. 129. 138. 19.</_>
    <_>
      71. 139. 137. 6.</_>
    <_>
      54. 134. 138. 12.</_>
    <_>
      49. 131. 138. 16.</_>
    <_>
      62. 132. 138. 14.</_>
    <_>
      85. 140. 140. 8.</_>
    <_>
      57. 132. 139. 14.</_>
    <_>
      47. 130. 138. 18.</_>
    <_>
      71. 138. 137. 7.</_>
    <_>
      69. 134. 136. 10.</_>
    <_>
      65. 134. 139. 13.</_>
    <_>
      48. 130. 138. 16.</_>
    <_>
      64. 132. 137. 13.</_>
    <_>
      87. 143. 138. 4.</_>
    <_>
      66. 134. 138. 12.</_>
    <_>
      46. 130. 139. 18.</_>
    <_>
      87. 146. 139. 3.</_>
    <_>
      82. 140. 139. 8.</_>
    <_>
      76. 141. 138. 6.</_>
    <_>
      68. 137. 137. 8.</_>
    <_>
      66. 135. 137. 11.</_>
    <_>
      80. 136. 139. 11.</_>
    <_>
      83. 141. 140. 7.</_>
    <_>
      88. 142. 138. 5.</_>
    <_>
      87. 143. 137. 4.</_>
    <_>
      88. 142. 138. 5.</_>
    <_>
      65. 137. 139. 10.</_>
    <_>
      70. 141. 139. 7.</_>
    <_>
      84. 141. 139. 7.</_>
    <_>
      81. 143. 140. 5.</_>
    <_>
      82. 144. 139. 5.</_>
    <_>
      88. 143. 139. 5.</_>
    <_>
      86. 144. 138. 4.</_>
    <_>
      81. 143. 140. 5.</_>
    <_>
      79. 144. 139. 5.</_>
    <_>
      85. 143. 139. 5.</_>
    <_>
      85. 140. 140. 8.</_>
    <_>
      79. 144. 139. 5.</_>
    <_>
      81. 143. 140. 5.</_>
    <_>
      85. 144. 140. 5.</_>
    <_>
      88. 143. 139. 5.</_>
    <_>
      77. 143. 139. 5.</_>
    <_>
      81. 143. 140. 5.</_>
    <_>
      81. 143. 140. 5.</_>
    <_>
      82. 145. 139. 4.</_>
    <_>
      88. 143. 139. 5.</_>
    <_>
      83. 141. 140. 7.</_>
    <_>
      82. 152. 141. 2.</_>
    <_>
      79. 144. 140. 5.</_>
    <_>
      79. 144. 140. 5.</_>
    <_>
      85. 140. 140. 8.</_>
    <_>
      84. 149. 139. 2.</_>
    <_>
      88. 143. 139. 5.</_>
    <_>
      89. 143. 139. 5.</_>
    <_>
      88. 143. 139. 5.</_>
    <_>
      89. 142. 139. 6.</_>
    <_>
      58. 125. 136. 32.</_>
    <_>
      58. 124. 137. 34.</_>
    <_>
      58. 124. 137. 34.</_>
    <_>
      58. 124. 137. 34.</_>
    <_>
      58. 124. 137. 34.</_>
    <_>
      46. 124. 132. 56.</_>
    <_>
      58. 124. 137. 34.</_>
    <_>
      58. 124. 137. 34.</_>
    <_>
      58. 124. 137. 34.</_>
    <_>
      58. 124. 137. 34.</_>
    <_>
      63. 131. 138. 16.</_>
    <_>
      69. 136. 137. 8.</_>
    <_>
      58. 124. 137. 34.</_>
    <_>
      65. 131. 137. 15.</_>
    <_>
      57. 131. 136. 15.</_>
    <_>
      63. 131. 138. 16.</_>
    <_>
      75. 135. 139. 11.</_>
    <_>
      63. 131. 138. 16.</_>
    <_>
      64. 132. 138. 14.</_>
    <_>
      91. 144. 139. 5.</_>
    <_>
      65. 136. 139. 10.</_>
    <_>
      68. 135. 137. 10.</_>
    <_>
      63. 131. 138. 16.</_>
    <_>
      66. 131. 137. 15.</_>
    <_>
      76. 135. 139. 11.</_>
    <_>
      76. 136. 139. 10.</_>
    <_>
      91. 144. 139. 5.</_>
    <_>
      65. 132. 137. 14.</_>
    <_>
      69. 136. 137. 9.</_>
    <_>
      65. 132. 137. 14.</_>
    <_>
      63. 131. 138. 16.</_>
    <_>
      86. 144. 141. 6.</_>
    <_>
      86. 144. 141. 6.</_>
    <_>
      66. 132. 137. 14.</_>
    <_>
      68. 136. 137. 9.</_>
    <_>
      64. 131. 138. 15.</_>
    <_>
      66. 137. 137. 8.</_>
    <_>
      65. 132. 137. 13.</_>
    <_>
      64. 131. 138. 15.</_>
    <_>
      71. 139. 139. 7.</_>
    <_>
      82. 145. 139. 4.</_>
    <_>
      81. 147. 141. 4.</_>
    <_>
      85. 143. 141. 6.</_>
    <_>
      58. 124. 137. 34.</_>
    <_>
      54. 134. 137. 12.</_>
    <_>
      67. 132. 136. 13.</_>
    <_>
      67. 135. 138. 11.</_>
    <_>
      75. 135. 139. 11.</_>
    <_>
      69. 135. 137. 10.</_>
    <_>
      71. 139. 139. 7.</_>
    <_>
      77. 150. 140. 2.</_>
    <_>
      85. 143. 141. 6.</_>
    <_>
      77. 151. 140. 2.</_>
    <_>
      77. 151. 140. 2.</_>
    <_>
      82. 138. 140. 9.</_>
    <_>
      82. 138. 140. 9.</_>
    <_>
      58. 124. 137. 34.</_>
    <_>
      58. 124. 137. 34.</_>
    <_>
      75. 135. 139. 11.</_>
    <_>
      65. 132. 137. 14.</_>
    <_>
      67. 135. 138. 11.</_>
    <_>
      81. 147. 140. 3.</_>
    <_>
      77. 151. 140. 2.</_>
    <_>
      85. 143. 141. 6.</_>
    <_>
      58. 132. 140. 15.</_>
    <_>
      58. 124. 137. 34.</_>
    <_>
      71. 138. 138. 7.</_>
    <_>
      75. 135. 139. 11.</_>
    <_>
      76. 136. 139. 11.</_>
    <_>
      75. 135. 139. 11.</_>
    <_>
      77. 151. 140. 2.</_>
    <_>
      69. 135. 137. 10.</_>
    <_>
      76. 136. 139. 11.</_>
    <_>
      75. 135. 139. 11.</_>
    <_>
      82. 138. 140. 9.</_>
    <_>
      81. 147. 140. 4.</_>
    <_>
      82. 138. 140. 9.</_>
    <_>
      77. 151. 140. 2.</_>
    <_>
      77. 140. 144. 10.</_>
    <_>
      78. 141. 139. 6.</_>
    <_>
      77. 142. 139. 6.</_>
    <_>
      82. 138. 140. 9.</_>
    <_>
      86. 142. 141. 7.</_>
    <_>
      77. 141. 140. 6.</_>
    <_>
      66. 132. 136. 13.</_>
    <_>
      58. 125. 136. 32.</_>
    <_>
      58. 124. 137. 34.</_>
    <_>
      69. 134. 137. 10.</_>
    <_>
      72. 139. 138. 7.</_>
    <_>
      71. 138. 139. 8.</_>
    <_>
      68. 141. 138. 6.</_>
    <_>
      69. 140. 139. 6.</_>
    <_>
      69. 140. 139. 6.</_>
    <_>
      82. 138. 140. 9.</_>
    <_>
      81. 147. 140. 4.</_>
    <_>
      85. 144. 141. 6.</_>
    <_>
      75. 150. 140. 2.</_>
    <_>
      77. 143. 140. 6.</_>
    <_>
      86. 142. 142. 8.</_>
    <_>
      82. 138. 140. 9.</_>
    <_>
      85. 142. 141. 7.</_>
    <_>
      76. 135. 139. 11.</_>
    <_>
      58. 124. 137. 34.</_>
    <_>
      58. 124. 137. 34.</_>
    <_>
      58. 124. 137. 34.</_>
    <_>
      82. 138. 140. 9.</_>
    <_>
      79. 142. 139. 6.</_>
    <_>
      85. 142. 141. 7.</_>
    <_>
      83. 139. 140. 9.</_>
    <_>
      82. 138. 140. 9.</_>
    <_>
      68. 135. 139. 11.</_>
    <_>
      58. 124. 138. 34.</_>
    <_>
      58. 125. 136. 32.</_>
    <_>
      65. 132. 137. 14.</_>
    <_>
      69. 137. 137. 9.</_>
    <_>
      71. 138. 138. 7.</_>
    <_>
      78. 141. 140. 7.</_>
    <_>
      85. 142. 142. 7.</_>
    <_>
      69. 140. 139. 6.</_>
    <_>
      85. 144. 141. 6.</_>
    <_>
      86. 144. 141. 6.</_>
    <_>
      70. 140. 138. 6.</_>
    <_>
      77. 151. 140. 2.</_>
    <_>
      82. 146. 141. 5.</_>
    <_>
      85. 142. 141. 7.</_>
    <_>
      79. 140. 140. 7.</_>
    <_>
      88. 142. 140. 6.</_>
    <_>
      84. 142. 142. 8.</_>
    <_>
      82. 146. 141. 5.</_>
    <_>
      86. 144. 141. 6.</_>
    <_>
      83. 139. 141. 9.</_>
    <_>
      65. 131. 137. 15.</_>
    <_>
      72. 137. 143. 12.</_>
    <_>
      78. 143. 139. 5.</_>
    <_>
      84. 143. 141. 6.</_>
    <_>
      71. 143. 138. 4.</_>
    <_>
      77. 151. 140. 2.</_>
    <_>
      92. 142. 140. 6.</_>
    <_>
      68. 136. 137. 9.</_>
    <_>
      77. 142. 139. 6.</_>
    <_>
      70. 140. 138. 7.</_>
    <_>
      74. 150. 140. 2.</_>
    <_>
      77. 151. 140. 2.</_>
    <_>
      67. 132. 136. 13.</_>
    <_>
      69. 136. 137. 8.</_>
    <_>
      74. 141. 141. 8.</_>
    <_>
      84. 142. 140. 7.</_>
    <_>
      74. 152. 141. 1.</_>
    <_>
      66. 132. 137. 14.</_>
    <_>
      65. 132. 137. 14.</_>
    <_>
      73. 135. 138. 10.</_>
    <_>
      75. 135. 139. 11.</_>
    <_>
      65. 139. 139. 7.</_>
    <_>
      76. 138. 139. 8.</_>
    <_>
      87. 144. 141. 6.</_>
    <_>
      83. 149. 141. 3.</_>
    <_>
      73. 150. 140. 2.</_>
    <_>
      75. 135. 139. 11.</_>
    <_>
      84. 141. 141. 7.</_>
    <_>
      72. 150. 140. 2.</_>
    <_>
      80. 152. 141. 2.</_>
    <_>
      80. 140. 140. 8.</_>
    <_>
      75. 135. 139. 11.</_>
    <_>
      78. 136. 139. 10.</_>
    <_>
      83. 141. 140. 8.</_>
    <_>
      78. 137. 139. 9.</_>
    <_>
      86. 143. 140. 6.</_>
    <_>
      83. 146. 141. 5.</_>
    <_>
      74. 134. 138. 11.</_>
    <_>
      88. 143. 141. 6.</_>
    <_>
      65. 130. 134. 15.</_>
    <_>
      80. 150. 139. 1.</_>
    <_>
      64. 130. 137. 16.</_>
    <_>
      80. 151. 138. 0.</_>
    <_>
      87. 143. 139. 5.</_>
    <_>
      89. 143. 140. 6.</_>
    <_>
      66. 132. 137. 14.</_>
    <_>
      69. 136. 137. 8.</_>
    <_>
      86. 141. 140. 7.</_>
    <_>
      66. 132. 137. 14.</_>
    <_>
      77. 151. 140. 2.</_>
    <_>
      79. 153. 140. 1.</_>
    <_>
      75. 135. 139. 11.</_>
    <_>
      76. 141. 139. 7.</_>
    <_>
      71. 139. 137. 6.</_>
    <_>
      81. 151. 140. 2.</_>
    <_>
      81. 151. 140. 2.</_>
    <_>
      76. 135. 139. 11.</_>
    <_>
      67. 142. 139. 6.</_>
    <_>
      69. 140. 139. 7.</_>
    <_>
      86. 143. 141. 6.</_>
    <_>
      78. 140. 139. 8.</_>
    <_>
      71. 141. 139. 6.</_>
    <_>
      81. 146. 140. 4.</_>
    <_>
      77. 149. 141. 3.</_>
    <_>
      83. 137. 140. 9.</_>
    <_>
      75. 136. 139. 10.</_>
    <_>
      77. 140. 139. 7.</_>
    <_>
      85. 147. 140. 3.</_>
    <_>
      77. 150. 140. 2.</_>
    <_>
      91. 143. 139. 5.</_>
    <_>
      86. 142. 140. 6.</_>
    <_>
      90. 143. 139. 5.</_>
    <_>
      77. 141. 140. 6.</_>
    <_>
      76. 136. 139. 11.</_>
    <_>
      82. 138. 140. 9.</_>
    <_>
      82. 138. 140. 9.</_>
    <_>
      82. 138. 140. 9.</_>
    <_>
      79. 141. 140. 6.</_>
    <_>
      82. 148. 141. 4.</_>
    <_>
      82. 138. 140. 9.</_>
    <_>
      89. 144. 140. 5.</_>
    <_>
      76. 151. 139. 1.</_>
    <_>
      91. 143. 139. 5.</_>
    <_>
      91. 143. 139. 5.</_>
    <_>
      82. 138. 140. 9.</_>
    <_>
      86. 144. 141. 6.</_>
    <_>
      91. 143. 139. 5.</_>
    <_>
      89. 144. 138. 4.</_>
    <_>
      85. 147. 140. 3.</_>
    <_>
      91. 144. 139. 5.</_>
    <_>
      87. 144. 141. 6.</_>
    <_>
      83. 146. 140. 4.</_>
    <_>
      79. 147. 140. 4.</_>
    <_>
      84. 143. 141. 6.</_>
    <_>
      91. 144. 139. 5.</_>
    <_>
      84. 148. 140. 3.</_>
    <_>
      69. 140. 139. 6.</_>
    <_>
      81. 144. 140. 6.</_>
    <_>
      91. 143. 139. 5.</_>
    <_>
      69. 133. 132. 6.</_>
    <_>
      51. 131. 133. 11.</_>
    <_>
      68. 136. 134. 6.</_>
    <_>
      75. 136. 135. 6.</_>
    <_>
      88. 143. 139. 5.</_>
    <_>
      79. 151. 140. 2.</_>
    <_>
      75. 149. 141. 3.</_>
    <_>
      86. 144. 141. 6.</_>
    <_>
      82. 146. 141. 5.</_>
    <_>
      82. 146. 141. 5.</_>
    <_>
      82. 146. 141. 5.</_>
    <_>
      82. 146. 141. 5.</_>
    <_>
      79. 152. 139. 1.</_>
    <_>
      77. 152. 140. 1.</_>
    <_>
      82. 149. 137. 0.</_>
    <_>
      81. 147. 142. 4.</_>
    <_>
      75. 147. 140. 3.</_>
    <_>
      65. 139. 143. 10.</_>
    <_>
      78. 138. 142. 10.</_>
    <_>
      79. 138. 142. 10.</_>
    <_>
      85. 144. 139. 4.</_>
    <_>
      85. 138. 140. 10.</_>
    <_>
      81. 147. 139. 3.</_>
    <_>
      74. 148. 141. 3.</_>
    <_>
      89. 142. 139. 5.</_>
    <_>
      75. 135. 139. 11.</_>
    <_>
      83. 137. 140. 9.</_></support_vectors>
  <decision_functions>
    <_>
      <sv_count>2000</sv_count>
      <rho>-1.1643897389555191e-01</rho>
      <alpha>
        1. 1. 1. 1. 1. 1. 1. 1. 1. 1. 1. 1. 1. 1. 1. 1. 1. 1. 1. 1. 1.
        1. 1. 1. 1. 1. 1. 1. 1. 1. 1. 1. 1. 1. 1. 1. 1. 1. 1. 1. 1. 1.
        1. 1. 1. 1. 1. 1. 1. 1. 1. 1. 1. 1. 1. 1. 1. 1. 1. 1. 1. 1. 1.
        1. 1. 1. 1. 1. 1. 1. 1. 1. 1. 1. 1. 1. 1. 1. 1. 1. 1. 1. 1. 1.
        1. 1. 1. 1. 1. 1. 1. 1. 1. 1. 1. 1. 1. 1. 1. 1. 1. 1. 1. 1. 1.
        1. 1. 1. 1. 1. 1. 1. 1. 1. 1. 1. 1. 1. 1. 1. 1. 1. 1. 1. 1. 1.
        1. 1. 1. 1. 1. 1. 1. 1. 1. 1. 1. 1. 1. 1. 1. 1. 1. 1. 1. 1. 1.
        1. 1. 1. 1. 1. 1. 1. 1. 1. 1. 1. 1. 1. 1. 1. 1. 1. 1. 1. 1. 1.
        1. 1. 1. 1. 1. 1. 1. 1. 1. 1. 1. 1. 1. 1. 1. 1. 1. 1. 1. 1. 1.
        1. 1. 1. 1. 1. 1. 1. 1. 1. 1. 1. 1. 1. 1. 1. 1. 1. 1. 1. 1. 1.
        1. 1. 1. 1. 1. 1. 1. 1. 1. 1. 1. 1. 1. 1. 1. 1. 1. 1. 1. 1. 1.
        1. 1. 1. 1. 1. 1. 1. 1. 1. 1. 1. 1. 1. 1. 1. 1. 1. 1. 1. 1. 1.
        1. 1. 1. 1. 1. 1. 1. 1. 1. 1. 1. 1. 1. 1. 1. 1. 1. 1. 1. 1. 1.
        1. 1. 1. 1. 1. 1. 1. 1. 1. 1. 1. 1. 1. 1. 1. 1. 1. 1. 1. 1. 1.
        1. 1. 1. 1. 1. 1. 1. 1. 1. 1. 1. 1. 1. 1. 1. 1. 1. 1. 1. 1. 1.
        1. 1. 1. 1. 1. 1. 1. 1. 1. 1. 1. 1. 1. 1. 1. 1. 1. 1. 1. 1. 1.
        1. 1. 1. 1. 1. 1. 1. 1. 1. 1. 1. 1. 1. 1. 1. 1. 1. 1. 1. 1. 1.
        1. 1. 1. 1. 1. 1. 1. 1. 1. 1. 1. 1. 1. 1. 1. 1. 1. 1. 1. 1. 1.
        1. 1. 1. 1. 1. 1. 1. 1. 1. 1. 1. 1. 1. 1. 1. 1. 1. 1. 1. 1. 1.
        1. 1. 1. 1. 1. 1. 1. 1. 1. 1. 1. 1. 1. 1. 1. 1. 1. 1. 1. 1. 1.
        1. 1. 1. 1. 1. 1. 1. 1. 1. 1. 1. 1. 1. 1. 1. 1. 1. 1. 1. 1. 1.
        1. 1. 1. 1. 1. 1. 1. 1. 1. 1. 1. 1. 1. 1. 1. 1. 1. 1. 1. 1. 1.
        1. 1. 1. 1. 1. 1. 1. 1. 1. 1. 1. 1. 1. 1. 1. 1. 1. 1. 1. 1. 1.
        1. 1. 1. 1. 1. 1. 1. 1. 1. 1. 1. 1. 1. 1. 1. 1. 1. 1. 1. 1. 1.
        1. 1. 1. 1. 1. 1. 1. 1. 1. 1. 1. 1. 1. 1. 1. 1. 1. 1. 1. 1. 1.
        1. 1. 1. 1. 1. 1. 1. 1. 1. 1. 1. 1. 1. 1. 1. 1. 1. 1. 1. 1. 1.
        1. 1. 1. 1. 1. 1. 1. 1. 1. 1. 1. 1. 1. 1. 1. 1. 1. 1. 1. 1. 1.
        1. 1. 1. 1. 1. 1. 1. 1. 1. 1. 1. 1. 1. 1. 1. 1. 1. 1. 1. 1. 1.
        1. 1. 1. 1. 1. 1. 1. 1. 1. 1. 1. 1. 1. 1. 1. 1. 1. 1. 1. 1. 1.
        1. 1. 1. 1. 1. 1. 1. 1. 1. 1. 1. 1. 1. 1. 1. 1. 1. 1. 1. 1. 1.
        1. 1. 1. 1. 1. 1. 1. 1. 1. 1. 1. 1. 1. 1. 1. 1. 1. 1. 1. 1. 1.
        1. 1. 1. 1. 1. 1. 1. 1. 1. 1. 1. 1. 1. 1. 1. 1. 1. 1. 1. 1. 1.
        1. 1. 1. 1. 1. 1. 1. 1. 1. 1. 1. 1. 1. 1. 1. 1. 1. 1. 1. 1. 1.
        1. 1. 1. 1. 1. 1. 1. 1. 1. 1. 1. 1. 1. 1. 1. 1. 1. 1. 1. 1. 1.
        1. 1. 1. 1. 1. 1. 1. 1. 1. 1. 1. 1. 1. 1. 1. 1. 1. 1. 1. 1. 1.
        1. 1. 1. 1. 1. 1. 1. 1. 1. 1. 1. 1. 1. 1. 1. 1. 1. 1. 1. 1. 1.
        1. 1. 1. 1. 1. 1. 1. 1. 1. 1. 1. 1. 1. 1. 1. 1. 1. 1. 1. 1. 1.
        1. 1. 1. 1. 1. 1. 1. 1. 1. 1. 1. 1. 1. 1. 1. 1. 1. 1. 1. 1. 1.
        1. 1. 1. 1. 1. 1. 1. 1. 1. 1. 1. 1. 1. 1. 1. 1. 1. 1. 1. 1. 1.
        1. 1. 1. 1. 1. 1. 1. 1. 1. 1. 1. 1. 1. 1. 1. 1. 1. 1. 1. 1. 1.
        1. 1. 1. 1. 1. 1. 1. 1. 1. 1. 1. 1. 1. 1. 1. 1. 1. 1. 1. 1. 1.
        1. 1. 1. 1. 1. 1. 1. 1. 1. 1. 1. 1. 1. 1. 1. 1. 1. 1. 1. 1. 1.
        1. 1. 1. 1. 1. 1. 1. 1. 1. 1. 1. 1. 1. 1. 1. 1. 1. 1. 1. 1. 1.
        1. 1. 1. 1. 1. 1. 1. 1. 1. 1. 1. 1. 1. 1. 1. 1. 1. 1. 1. 1. 1.
        1. 1. 1. 1. 1. 1. 1. 1. 1. 1. 1. 1. 1. 1. 1. 1. 1. 1. 1. 1. 1.
        1. 1. 1. 1. 1. 1. 1. 1. 1. 1. 1. 1. 1. 1. 1. 1. 1. 1. 1. 1. 1.
        1. 1. 1. 1. 1. 1. 1. 1. 1. 1. 1. 1. 1. 1. 1. 1. 1. 1. 1. 1. 1.
        1. 1. 1. 1. 1. 1. 1. 1. 1. 1. 1. 1. 1. -1. -1. -1. -1. -1. -1.
        -1. -1. -1. -1. -1. -1. -1. -1. -1. -1. -1. -1. -1. -1. -1. -1.
        -1. -1. -1. -1. -1. -1. -1. -1. -1. -1. -1. -1. -1. -1. -1. -1.
        -1. -1. -1. -1. -1. -1. -1. -1. -1. -1. -1. -1. -1. -1. -1. -1.
        -1. -1. -1. -1. -1. -1. -1. -1. -1. -1. -1. -1. -1. -1. -1. -1.
        -1. -1. -1. -1. -1. -1. -1. -1. -1. -1. -1. -1. -1. -1. -1. -1.
        -1. -1. -1. -1. -1. -1. -1. -1. -1. -1. -1. -1. -1. -1. -1. -1.
        -1. -1. -1. -1. -1. -1. -1. -1. -1. -1. -1. -1. -1. -1. -1. -1.
        -1. -1. -1. -1. -1. -1. -1. -1. -1. -1. -1. -1. -1. -1. -1. -1.
        -1. -1. -1. -1. -1. -1. -1. -1. -1. -1. -1. -1. -1. -1. -1. -1.
        -1. -1. -1. -1. -1. -1. -1. -1. -1. -1. -1. -1. -1. -1. -1. -1.
        -1. -1. -1. -1. -1. -1. -1. -1. -1. -1. -1. -1. -1. -1. -1. -1.
        -1. -1. -1. -1. -1. -1. -1. -1. -1. -1. -1. -1. -1. -1. -1. -1.
        -1. -1. -1. -1. -1. -1. -1. -1. -1. -1. -1. -1. -1. -1. -1. -1.
        -1. -1. -1. -1. -1. -1. -1. -1. -1. -1. -1. -1. -1. -1. -1. -1.
        -1. -1. -1. -1. -1. -1. -1. -1. -1. -1. -1. -1. -1. -1. -1. -1.
        -1. -1. -1. -1. -1. -1. -1. -1. -1. -1. -1. -1. -1. -1. -1. -1.
        -1. -1. -1. -1. -1. -1. -1. -1. -1. -1. -1. -1. -1. -1. -1. -1.
        -1. -1. -1. -1. -1. -1. -1. -1. -1. -1. -1. -1. -1. -1. -1. -1.
        -1. -1. -1. -1. -1. -1. -1. -1. -1. -1. -1. -1. -1. -1. -1. -1.
        -1. -1. -1. -1. -1. -1. -1. -1. -1. -1. -1. -1. -1. -1. -1. -1.
        -1. -1. -1. -1. -1. -1. -1. -1. -1. -1. -1. -1. -1. -1. -1. -1.
        -1. -1. -1. -1. -1. -1. -1. -1. -1. -1. -1. -1. -1. -1. -1. -1.
        -1. -1. -1. -1. -1. -1. -1. -1. -1. -1. -1. -1. -1. -1. -1. -1.
        -1. -1. -1. -1. -1. -1. -1. -1. -1. -1. -1. -1. -1. -1. -1. -1.
        -1. -1. -1. -1. -1. -1. -1. -1. -1. -1. -1. -1. -1. -1. -1. -1.
        -1. -1. -1. -1. -1. -1. -1. -1. -1. -1. -1. -1. -1. -1. -1. -1.
        -1. -1. -1. -1. -1. -1. -1. -1. -1. -1. -1. -1. -1. -1. -1. -1.
        -1. -1. -1. -1. -1. -1. -1. -1. -1. -1. -1. -1. -1. -1. -1. -1.
        -1. -1. -1. -1. -1. -1. -1. -1. -1. -1. -1. -1. -1. -1. -1. -1.
        -1. -1. -1. -1. -1. -1. -1. -1. -1. -1. -1. -1. -1. -1. -1. -1.
        -1. -1. -1. -1. -1. -1. -1. -1. -1. -1. -1. -1. -1. -1. -1. -1.
        -1. -1. -1. -1. -1. -1. -1. -1. -1. -1. -1. -1. -1. -1. -1. -1.
        -1. -1. -1. -1. -1. -1. -1. -1. -1. -1. -1. -1. -1. -1. -1. -1.
        -1. -1. -1. -1. -1. -1. -1. -1. -1. -1. -1. -1. -1. -1. -1. -1.
        -1. -1. -1. -1. -1. -1. -1. -1. -1. -1. -1. -1. -1. -1. -1. -1.
        -1. -1. -1. -1. -1. -1. -1. -1. -1. -1. -1. -1. -1. -1. -1. -1.
        -1. -1. -1. -1. -1. -1. -1. -1. -1. -1. -1. -1. -1. -1. -1. -1.
        -1. -1. -1. -1. -1. -1. -1. -1. -1. -1. -1. -1. -1. -1. -1. -1.
        -1. -1. -1. -1. -1. -1. -1. -1. -1. -1. -1. -1. -1. -1. -1. -1.
        -1. -1. -1. -1. -1. -1. -1. -1. -1. -1. -1. -1. -1. -1. -1. -1.
        -1. -1. -1. -1. -1. -1. -1. -1. -1. -1. -1. -1. -1. -1. -1. -1.
        -1. -1. -1. -1. -1. -1. -1. -1. -1. -1. -1. -1. -1. -1. -1. -1.
        -1. -1. -1. -1. -1. -1. -1. -1. -1. -1. -1. -1. -1. -1. -1. -1.
        -1. -1. -1. -1. -1. -1. -1. -1. -1. -1. -1. -1. -1. -1. -1. -1.
        -1. -1. -1. -1. -1. -1. -1. -1. -1. -1. -1. -1. -1. -1. -1. -1.
        -1. -1. -1. -1. -1. -1. -1. -1. -1. -1. -1. -1. -1. -1. -1. -1.
        -1. -1. -1. -1. -1. -1. -1. -1. -1. -1. -1. -1. -1. -1. -1. -1.
        -1. -1. -1. -1. -1. -1. -1. -1. -1. -1. -1. -1. -1. -1. -1. -1.
        -1. -1. -1. -1. -1. -1. -1. -1. -1. -1. -1. -1. -1. -1. -1. -1.
        -1. -1. -1. -1. -1. -1. -1. -1. -1. -1. -1. -1. -1. -1. -1. -1.
        -1. -1. -1. -1. -1. -1. -1. -1. -1. -1. -1. -1. -1. -1. -1. -1.
        -1. -1. -1. -1. -1. -1. -1. -1. -1. -1. -1. -1. -1. -1. -1. -1.
        -1. -1. -1. -1. -1. -1. -1. -1. -1. -1. -1. -1. -1. -1. -1. -1.
        -1. -1. -1. -1. -1. -1. -1. -1. -1. -1. -1. -1. -1. -1. -1. -1.
        -1. -1. -1. -1. -1. -1. -1. -1. -1. -1. -1. -1. -1. -1. -1. -1.
        -1. -1. -1. -1. -1. -1. -1. -1. -1. -1. -1. -1. -1. -1. -1. -1.
        -1. -1. -1. -1. -1. -1. -1. -1. -1. -1. -1. -1. -1. -1. -1. -1.
        -1. -1. -1. -1. -1. -1. -1. -1. -1. -1. -1. -1. -1. -1. -1. -1.
        -1. -1. -1. -1. -1. -1. -1. -1. -1. -1. -1. -1. -1. -1. -1. -1.
        -1. -1. -1. -1. -1. -1. -1. -1. -1. -1. -1. -1. -1. -1. -1. -1.
        -1. -1. -1. -1. -1. -1. -1. -1. -1. -1. -1. -1. -1. -1. -1. -1.
        -1. -1. -1. -1. -1. -1. -1. -1. -1. -1. -1. -1. -1. -1. -1. -1.
        -1. -1.</alpha>
      <index>
        0 9 11 12 13 14 15 16 17 18 21 23 24 25 26 31 32 33 34 35 36 37
        38 40 41 43 44 45 46 47 48 49 50 51 52 53 54 55 56 57 58 59 60
        61 62 63 64 65 66 67 68 69 70 73 76 77 78 79 80 84 85 86 104 107
        108 122 123 124 125 126 127 128 129 130 136 138 139 140 141 142
        143 144 145 146 147 148 149 150 151 152 153 154 155 156 157 158
        159 160 161 162 163 164 165 166 167 168 169 170 171 172 173 174
        175 177 179 180 181 182 183 184 185 186 187 188 189 190 191 193
        194 195 196 197 198 199 200 201 202 203 204 205 206 207 210 213
        214 216 217 219 220 221 222 223 224 225 226 227 228 229 230 231
        232 233 234 235 236 237 238 239 240 242 243 244 245 248 249 252
        253 254 255 256 257 258 259 260 261 262 263 264 265 266 267 268
        269 270 271 272 273 274 275 276 277 278 279 280 281 282 283 284
        285 286 287 288 289 290 291 292 293 294 295 296 297 298 299 300
        301 302 303 304 305 306 307 308 309 310 311 312 313 314 315 316
        317 318 319 320 321 322 323 324 325 326 327 328 329 330 331 332
        333 334 335 336 337 340 341 342 343 344 345 346 347 349 350 351
        352 353 354 355 356 357 358 359 360 361 362 363 364 365 366 367
        368 371 372 373 374 375 376 377 378 379 380 381 382 383 384 385
        386 387 388 389 391 392 393 394 395 396 397 398 399 400 401 402
        403 404 405 406 407 408 409 410 411 412 413 414 415 416 418 419
        420 425 426 427 428 429 430 431 432 433 434 442 450 527 533 534
        535 536 537 538 540 541 542 543 544 545 546 547 548 549 550 551
        552 553 554 555 556 557 558 559 560 561 562 563 564 565 566 567
        568 569 570 571 572 573 574 575 576 577 578 579 580 581 582 587
        588 598 1976 631 632 633 634 635 636 637 638 639 640 641 642 643
        644 645 646 647 648 649 650 651 652 653 654 655 656 657 661 668
        679 680 681 682 683 684 685 686 687 688 689 690 691 692 693 694
        695 696 697 698 699 700 701 702 703 704 705 706 707 708 709 710
        711 712 713 714 715 716 718 722 723 724 725 727 728 729 730 731
        732 733 734 735 736 737 738 739 740 741 742 743 744 745 746 747
        748 749 750 751 752 753 754 755 756 757 758 759 760 761 762 763
        764 765 766 767 769 771 772 773 774 775 776 777 778 779 780 781
        782 783 784 785 786 787 788 789 790 791 792 793 794 795 796 797
        798 799 800 801 802 803 804 805 806 807 808 809 810 811 812 813
        814 815 816 817 818 819 820 821 822 823 824 825 826 827 828 829
        830 831 832 833 834 835 836 837 838 839 840 841 842 843 844 845
        846 847 848 853 855 856 1977 881 882 883 884 885 886 887 888
        1978 1979 1980 1981 1982 1983 894 895 896 897 898 899 900 901
        902 903 904 905 906 907 908 909 910 911 912 1987 917 918 919 920
        921 922 923 924 925 926 927 928 929 930 931 932 933 934 935 936
        937 938 939 940 941 942 943 944 945 948 949 950 951 952 953 954
        955 956 957 1995 958 959 960 961 962 963 964 965 966 967 968 969
        970 971 972 973 974 975 976 977 978 979 980 981 982 983 1996 984
        985 986 987 988 989 990 991 992 993 994 995 1997 996 997 998 999
        1000 1001 1002 1003 1004 1005 1006 1007 1998 1009 1010 1011 1012
        1013 1014 1015 1016 1017 1018 1019 1020 1021 1022 1023 1024 1025
        1026 1027 1028 1029 1030 1031 1032 1033 1999 1041 1042 1043 1044
        1045 1046 1047 1048 1049 1050 1051 1052 1053 1060 1063 1064 1068
        1069 1070 1071 1072 1073 1074 1075 1076 1077 1078 1079 1081 1104
        1105 1107 1108 1109 1110 1111 1112 1113 1114 1115 1116 1117 1118
        1119 1120 1121 1122 1123 1124 1125 1133 1134 1135 1136 1137 1138
        1139 1140 1141 1142 1143 1144 1145 1146 1147 1148 1149 1150 1151
        1152 1153 1154 1155 1156 1157 1168 1169 1171 1172 1173 1174 1175
        1176 1177 1178 1179 1180 1181 1185 1186 1187 1188 1189 1190 1196
        1216 1217 1218 1219 1220 1221 1222 1223 1224 1225 1226 1227 1228
        1229 1233 1234 1235 1238 1240 1241 1242 1243 1244 1245 1246 1247
        1248 1249 1268 1269 1270 1271 1275 1276 1277 1278 1281 1283 1308
        1312 1313 1314 1315 1318 1319 1320 1321 1322 1323 1324 1325 1326
        1327 1328 1329 1330 1331 1344 1345 1349 1374 1375 1376 1377 1378
        1379 1380 1381 1382 1388 1390 1391 1392 1393 1394 1397 1401 1402
        1403 1404 1405 1406 1407 1408 1410 1411 1412 1413 1414 1415 1419
        1425 1426 1427 1428 1429 1443 1444 1445 1446 1447 1450 1451 1452
        1453 1454 1455 1456 1469 1470 1471 1472 1473 1474 1556 1557 1558
        1559 1560 1561 1562 1563 1564 1565 1566 1567 1568 1569 1570 1571
        1572 1573 1574 1575 1588 1743 1744 1745 1746 1747 1748 1749 1750
        1751 1752 1753 1754 1797 1805 1820 1879 1890 1923 1 2 3 4 5 6 7
        8 10 19 20 22 27 28 29 30 39 42 71 72 74 75 81 82 83 87 88 89 90
        91 92 93 94 95 96 97 98 99 100 101 102 103 105 106 109 110 111
        112 113 114 115 116 117 118 119 120 121 131 132 133 134 135 137
        176 178 192 208 209 211 212 215 218 241 246 247 250 251 338 339
        348 369 370 390 417 421 422 423 424 435 436 437 438 439 440 441
        443 444 445 446 447 448 449 451 452 453 454 455 456 457 458 459
        460 461 462 463 464 465 466 467 468 469 470 471 472 473 474 475
        476 477 478 479 480 481 482 483 484 485 486 487 488 489 490 491
        492 493 494 495 496 497 498 499 500 501 502 503 504 505 506 507
        508 509 510 511 512 513 514 515 516 517 518 519 520 521 522 523
        524 525 526 528 529 530 531 532 539 583 584 585 586 589 590 591
        592 593 594 595 596 597 599 600 601 602 603 604 605 606 607 608
        609 610 611 612 613 614 615 616 617 618 619 620 621 622 623 624
        625 626 627 628 629 630 658 659 660 662 663 664 665 666 667 669
        670 671 672 673 674 675 676 677 678 717 719 720 721 726 768 770
        849 850 851 852 854 857 858 859 860 861 862 863 864 865 866 867
        868 869 870 871 872 873 874 875 876 877 878 879 880 889 890 891
        892 893 913 914 915 916 946 947 1008 1034 1035 1036 1037 1038
        1039 1040 1757 1758 1353 1354 1759 1760 1761 1762 1763 1764 1765
        1766 1767 1768 1769 1297 1298 1299 1267 1770 1771 1772 1773 1774
        1775 1776 1777 1778 1779 1780 1781 1782 1783 1784 1785 1355 1786
        1787 1788 1789 1790 1791 1792 1793 1794 1495 1795 1796 1798 1799
        1800 1801 1802 1803 1804 1496 1497 1498 1806 1807 1808 1809 1810
        1811 1812 1499 1813 1814 1815 1816 1817 1818 1819 1500 1501 1821
        1822 1823 1824 1825 1826 1827 1828 1829 1830 1831 1832 1833 1834
        1835 1836 1837 1838 1502 1503 1504 1505 1839 1840 1841 1842 1843
        1844 1845 1846 1847 1848 1356 1357 1358 1506 1507 1508 1509 1849
        1850 1851 1852 1853 1854 1855 1856 1857 1858 1859 1860 1861 1862
        1863 1510 1511 1864 1865 1866 1867 1868 1869 1870 1871 1872 1512
        1096 1097 1873 1874 1875 1876 1877 1513 1514 1515 1516 1517 1518
        1878 1880 1881 1882 1409 1883 1884 1885 1886 1887 1888 1889 1519
        1520 1891 1892 1893 1894 1895 1896 1897 1300 1301 1359 1360 1521
        1522 1523 1524 1525 1526 1898 1899 1900 1901 1527 1528 1529 1280
        1902 1903 1904 1905 1906 1907 1530 1531 1532 1533 1534 1535 1908
        1909 1910 1911 1536 1537 1538 1539 1912 1913 1914 1915 1540 1541
        1542 1543 1544 1545 1916 1917 1918 1919 1920 1361 1546 1921 1922
        1547 1924 1925 1926 1548 1927 1928 1929 1930 1549 1931 1932 1933
        1934 1362 1935 1936 1937 1938 1939 1940 1941 1302 1942 1943 1944
        1945 1946 1303 1947 1550 1948 1949 1551 1552 1430 1431 1950 1363
        1364 1951 1952 1953 1954 1553 1955 1956 1957 1958 1959 1960 1961
        1304 1962 1963 1964 1432 1433 1434 1365 1965 1966 1967 1554 1555
        1282 1968 1969 1435 1436 1970 1971 1437 1438 1439 1440 1305 1306
        1366 1367 1368 1369 1307 1370 1191 1192 1441 1442 1972 1371 1372
        1056 1057 1373 1193 1194 1309 1310 1311 1182 1183 1284 1158 1159
        1184 1285 1160 1161 1162 1163 1286 1287 1288 1195 1346 1347 1316
        1317 1164 1165 1289 1348 1290 1291 1292 1132 1166 1167 1197 1293
        1170 1198 1054 1055 1098 1099 1100 1080 1199 1200 1201 1202 1203
        1204 1205 1206 1207 1082 1208 1209 1210 1067 1211 1212 1213 1214
        1215 1101 1102 1103 1083 1084 1085 1061 1062 1230 1086 1087 1088
        1089 1231 1335 1336 1232 1337 1416 1106 1417 1065 1066 1338 1339
        1340 1341 1342 1420 1236 1418 1237 1279 1058 1059 1343 1421 1422
        1423 1424 1239 1383 1973 1974 1090 1091 1975 1092 1093 1094 1250
        1384 1385 1126 1251 1386 1127 1128 1457 1387 1272 1576 1577 1458
        1252 1253 1273 1459 1578 1579 1129 1130 1460 1461 1580 1581 1582
        1583 1254 1255 1256 1257 1274 1462 1584 1585 1463 1464 1586 1587
        1465 1466 1589 1258 1259 1590 1591 1592 1593 1594 1595 1596 1597
        1598 1599 1600 1601 1602 1260 1261 1262 1603 1467 1604 1605 1606
        1395 1396 1468 1607 1608 1609 1610 1611 1612 1613 1614 1615 1616
        1263 1264 1131 1617 1618 1619 1620 1621 1622 1623 1624 1625 1332
        1333 1398 1626 1627 1628 1399 1629 1630 1400 1631 1632 1633 1634
        1635 1636 1637 1638 1639 1265 1640 1641 1642 1643 1334 1984 1644
        1645 1646 1647 1648 1649 1650 1651 1985 1986 1652 1653 1654 1988
        1989 1655 1656 1657 1990 1991 1992 1993 1658 1659 1660 1994 1661
        1662 1663 1664 1665 1666 1667 1668 1669 1670 1671 1672 1673 1674
        1675 1676 1475 1476 1677 1678 1448 1477 1478 1479 1679 1680 1681
        1095 1682 1683 1684 1685 1686 1687 1688 1480 1481 1482 1449 1689
        1690 1691 1692 1350 1483 1484 1485 1693 1694 1695 1696 1697 1698
        1699 1700 1486 1351 1701 1702 1703 1487 1488 1489 1490 1704 1705
        1706 1707 1708 1709 1710 1711 1712 1266 1491 1713 1714 1715 1716
        1717 1718 1719 1720 1294 1295 1352 1389 1721 1722 1723 1724 1725
        1726 1727 1728 1729 1730 1731 1732 1733 1734 1492 1493 1755 1735
        1736 1737 1738 1494 1296 1756 1739 1740 1741 1742</index></_></decision_functions></opencv_ml_svm>
</opencv_storage>
